digraph Tree {
node [shape=box, style="filled, rounded", color="black", fontname=helvetica] ;
edge [fontname=helvetica] ;
0 [label="OverallQualXGrLivArea <= 9890.0\nmse = 0.146\nsamples = 1005\nvalue = 12.013", fillcolor="#f0b68c"] ;
1 [label="TotalBsmtSFXGarageCars <= 1087.0\nmse = 0.07\nsamples = 601\nvalue = 11.793", fillcolor="#f2c09c"] ;
0 -> 1 [labeldistance=2.5, labelangle=45, headlabel="True"] ;
2 [label="OverallQualXGrLivArea <= 3295.5\nmse = 0.061\nsamples = 273\nvalue = 11.631", fillcolor="#f4c8a8"] ;
1 -> 2 ;
3 [label="ExterQualXYearBuilt <= 3841.0\nmse = 0.099\nsamples = 22\nvalue = 11.196", fillcolor="#f8dcc8"] ;
2 -> 3 ;
4 [label="MSZoning_RLXLotArea <= 5165.0\nmse = 0.109\nsamples = 8\nvalue = 10.922", fillcolor="#fbe9dd"] ;
3 -> 4 ;
5 [label="LotFrontageXLotArea <= 384495.0\nmse = 0.002\nsamples = 3\nvalue = 10.527", fillcolor="#fefcfa"] ;
4 -> 5 ;
6 [label="KitchenQualXTotalBsmtSF <= 600.0\nmse = 0.0\nsamples = 2\nvalue = 10.561", fillcolor="#fefaf8"] ;
5 -> 6 ;
7 [label="mse = 0.0\nsamples = 1\nvalue = 10.579", fillcolor="#fef9f6"] ;
6 -> 7 ;
8 [label="mse = -0.0\nsamples = 1\nvalue = 10.543", fillcolor="#fefbf9"] ;
6 -> 8 ;
9 [label="mse = -0.0\nsamples = 1\nvalue = 10.46", fillcolor="#ffffff"] ;
5 -> 9 ;
10 [label="Electrical_SBrkr <= 0.5\nmse = 0.024\nsamples = 5\nvalue = 11.158", fillcolor="#f8decb"] ;
4 -> 10 ;
11 [label="EnclosedPorch <= 98.0\nmse = 0.003\nsamples = 3\nvalue = 11.036", fillcolor="#f9e4d4"] ;
10 -> 11 ;
12 [label="YearRemodAddXGarageCars <= 975.0\nmse = 0.0\nsamples = 2\nvalue = 10.998", fillcolor="#fae6d7"] ;
11 -> 12 ;
13 [label="mse = 0.0\nsamples = 1\nvalue = 11.019", fillcolor="#fae5d6"] ;
12 -> 13 ;
14 [label="mse = -0.0\nsamples = 1\nvalue = 10.977", fillcolor="#fae7d9"] ;
12 -> 14 ;
15 [label="mse = -0.0\nsamples = 1\nvalue = 11.112", fillcolor="#f9e0cf"] ;
11 -> 15 ;
16 [label="Foundation_CBlock <= 0.5\nmse = 0.0\nsamples = 2\nvalue = 11.341", fillcolor="#f6d5be"] ;
10 -> 16 ;
17 [label="mse = 0.0\nsamples = 1\nvalue = 11.362", fillcolor="#f6d4bc"] ;
16 -> 17 ;
18 [label="mse = 0.0\nsamples = 1\nvalue = 11.321", fillcolor="#f7d6bf"] ;
16 -> 18 ;
19 [label="OverallQualXTotalBsmtSF <= 3168.0\nmse = 0.025\nsamples = 14\nvalue = 11.352", fillcolor="#f6d5bd"] ;
3 -> 19 ;
20 [label="TotalBsmtSF <= 651.0\nmse = 0.012\nsamples = 13\nvalue = 11.386", fillcolor="#f6d3ba"] ;
19 -> 20 ;
21 [label="GarageCond <= 2.5\nmse = 0.005\nsamples = 10\nvalue = 11.345", fillcolor="#f6d5bd"] ;
20 -> 21 ;
22 [label="Exterior1st_VinylSdXGarageYrBlt <= 977.5\nmse = 0.003\nsamples = 5\nvalue = 11.286", fillcolor="#f7d8c2"] ;
21 -> 22 ;
23 [label="MoSold <= 9.5\nmse = 0.001\nsamples = 4\nvalue = 11.31", fillcolor="#f7d7c0"] ;
22 -> 23 ;
24 [label="HeatingQCXYearRemodAdd <= 6970.0\nmse = 0.0\nsamples = 3\nvalue = 11.298", fillcolor="#f7d7c1"] ;
23 -> 24 ;
25 [label="HeatingQC <= 2.0\nmse = 0.0\nsamples = 2\nvalue = 11.308", fillcolor="#f7d7c0"] ;
24 -> 25 ;
26 [label="mse = 0.0\nsamples = 1\nvalue = 11.314", fillcolor="#f7d7c0"] ;
25 -> 26 ;
27 [label="mse = -0.0\nsamples = 1\nvalue = 11.302", fillcolor="#f7d7c0"] ;
25 -> 27 ;
28 [label="mse = -0.0\nsamples = 1\nvalue = 11.277", fillcolor="#f7d8c2"] ;
24 -> 28 ;
29 [label="mse = -0.0\nsamples = 1\nvalue = 11.345", fillcolor="#f6d5bd"] ;
23 -> 29 ;
30 [label="mse = 0.0\nsamples = 1\nvalue = 11.191", fillcolor="#f8dcc9"] ;
22 -> 30 ;
31 [label="YearBuiltXGarageArea <= 779800.0\nmse = 0.001\nsamples = 5\nvalue = 11.405", fillcolor="#f6d2b9"] ;
21 -> 31 ;
32 [label="HouseStyle_1StoryX1stFlrSF <= 308.0\nmse = 0.0\nsamples = 3\nvalue = 11.379", fillcolor="#f6d4bb"] ;
31 -> 32 ;
33 [label="mse = 0.0\nsamples = 1\nvalue = 11.362", fillcolor="#f6d4bc"] ;
32 -> 33 ;
34 [label="OverallQualXYearRemodAdd <= 7800.0\nmse = 0.0\nsamples = 2\nvalue = 11.388", fillcolor="#f6d3ba"] ;
32 -> 34 ;
35 [label="mse = 0.0\nsamples = 1\nvalue = 11.379", fillcolor="#f6d4bb"] ;
34 -> 35 ;
36 [label="mse = -0.0\nsamples = 1\nvalue = 11.396", fillcolor="#f6d3b9"] ;
34 -> 36 ;
37 [label="HeatingQCXYearRemodAdd <= 3900.0\nmse = 0.0\nsamples = 2\nvalue = 11.443", fillcolor="#f5d1b6"] ;
31 -> 37 ;
38 [label="mse = 0.0\nsamples = 1\nvalue = 11.439", fillcolor="#f5d1b6"] ;
37 -> 38 ;
39 [label="mse = -0.0\nsamples = 1\nvalue = 11.446", fillcolor="#f5d0b6"] ;
37 -> 39 ;
40 [label="FireplaceQuXGrLivArea <= 1182.0\nmse = 0.008\nsamples = 3\nvalue = 11.522", fillcolor="#f5cdb0"] ;
20 -> 40 ;
41 [label="mse = 0.0\nsamples = 1\nvalue = 11.635", fillcolor="#f4c7a8"] ;
40 -> 41 ;
42 [label="ExterQualXGarageCars <= 1.0\nmse = 0.002\nsamples = 2\nvalue = 11.466", fillcolor="#f5cfb4"] ;
40 -> 42 ;
43 [label="mse = 0.0\nsamples = 1\nvalue = 11.513", fillcolor="#f5cdb1"] ;
42 -> 43 ;
44 [label="mse = 0.0\nsamples = 1\nvalue = 11.419", fillcolor="#f6d2b8"] ;
42 -> 44 ;
45 [label="mse = 0.0\nsamples = 1\nvalue = 10.915", fillcolor="#fbeadd"] ;
19 -> 45 ;
46 [label="OverallQualXTotalBsmtSF <= 3473.0\nmse = 0.039\nsamples = 251\nvalue = 11.669", fillcolor="#f3c6a5"] ;
2 -> 46 ;
47 [label="ExterQualXGrLivArea <= 2358.0\nmse = 0.046\nsamples = 80\nvalue = 11.556", fillcolor="#f4cbae"] ;
46 -> 47 ;
48 [label="KitchenQualXYearRemodAdd <= 1953.5\nmse = 0.031\nsamples = 43\nvalue = 11.435", fillcolor="#f5d1b7"] ;
47 -> 48 ;
49 [label="GarageCond <= 1.5\nmse = 0.0\nsamples = 2\nvalue = 10.924", fillcolor="#fae9dd"] ;
48 -> 49 ;
50 [label="mse = 0.0\nsamples = 1\nvalue = 10.915", fillcolor="#fbeadd"] ;
49 -> 50 ;
51 [label="mse = 0.0\nsamples = 1\nvalue = 10.933", fillcolor="#fae9dc"] ;
49 -> 51 ;
52 [label="GarageYrBltXGarageCars <= 1931.5\nmse = 0.019\nsamples = 41\nvalue = 11.46", fillcolor="#f5d0b5"] ;
48 -> 52 ;
53 [label="LotConfig_FR2 <= 0.5\nmse = 0.016\nsamples = 13\nvalue = 11.358", fillcolor="#f6d5bc"] ;
52 -> 53 ;
54 [label="ExterQualXYearRemodAdd <= 4011.0\nmse = 0.009\nsamples = 12\nvalue = 11.334", fillcolor="#f6d6be"] ;
53 -> 54 ;
55 [label="Functional_Typ <= 0.5\nmse = 0.003\nsamples = 11\nvalue = 11.357", fillcolor="#f6d5bc"] ;
54 -> 55 ;
56 [label="HeatingQCXYearBuilt <= 5796.0\nmse = 0.0\nsamples = 2\nvalue = 11.459", fillcolor="#f5d0b5"] ;
55 -> 56 ;
57 [label="mse = 0.0\nsamples = 1\nvalue = 11.477", fillcolor="#f5cfb3"] ;
56 -> 57 ;
58 [label="mse = 0.0\nsamples = 1\nvalue = 11.44", fillcolor="#f5d1b6"] ;
56 -> 58 ;
59 [label="ExterQualXGrLivArea <= 1781.0\nmse = 0.001\nsamples = 9\nvalue = 11.335", fillcolor="#f6d6be"] ;
55 -> 59 ;
60 [label="PavedDriveXYearBuilt <= 3894.0\nmse = 0.0\nsamples = 6\nvalue = 11.354", fillcolor="#f6d5bd"] ;
59 -> 60 ;
61 [label="HeatingQCXGarageYrBlt <= 2940.0\nmse = 0.0\nsamples = 5\nvalue = 11.348", fillcolor="#f6d5bd"] ;
60 -> 61 ;
62 [label="mse = 0.0\nsamples = 1\nvalue = 11.327", fillcolor="#f7d6bf"] ;
61 -> 62 ;
63 [label="FullBathXTotRmsAbvGrd <= 4.5\nmse = 0.0\nsamples = 4\nvalue = 11.353", fillcolor="#f6d5bd"] ;
61 -> 63 ;
64 [label="LotAreaXGrLivArea <= 4429250.0\nmse = 0.0\nsamples = 2\nvalue = 11.359", fillcolor="#f6d5bc"] ;
63 -> 64 ;
65 [label="mse = 0.0\nsamples = 1\nvalue = 11.362", fillcolor="#f6d4bc"] ;
64 -> 65 ;
66 [label="mse = 0.0\nsamples = 1\nvalue = 11.356", fillcolor="#f6d5bc"] ;
64 -> 66 ;
67 [label="YearBuiltXFullBath <= 1925.0\nmse = 0.0\nsamples = 2\nvalue = 11.347", fillcolor="#f6d5bd"] ;
63 -> 67 ;
68 [label="mse = 0.0\nsamples = 1\nvalue = 11.35", fillcolor="#f6d5bd"] ;
67 -> 68 ;
69 [label="mse = -0.0\nsamples = 1\nvalue = 11.345", fillcolor="#f6d5bd"] ;
67 -> 69 ;
70 [label="mse = -0.0\nsamples = 1\nvalue = 11.385", fillcolor="#f6d3ba"] ;
60 -> 70 ;
71 [label="EnclosedPorch <= 64.0\nmse = 0.0\nsamples = 3\nvalue = 11.296", fillcolor="#f7d8c1"] ;
59 -> 71 ;
72 [label="Neighborhood_BrkSide <= 0.5\nmse = 0.0\nsamples = 2\nvalue = 11.305", fillcolor="#f7d7c0"] ;
71 -> 72 ;
73 [label="mse = 0.0\nsamples = 1\nvalue = 11.314", fillcolor="#f7d7c0"] ;
72 -> 73 ;
74 [label="mse = -0.0\nsamples = 1\nvalue = 11.296", fillcolor="#f7d7c1"] ;
72 -> 74 ;
75 [label="mse = -0.0\nsamples = 1\nvalue = 11.277", fillcolor="#f7d8c2"] ;
71 -> 75 ;
76 [label="mse = -0.0\nsamples = 1\nvalue = 11.074", fillcolor="#f9e2d1"] ;
54 -> 76 ;
77 [label="mse = 0.0\nsamples = 1\nvalue = 11.653", fillcolor="#f3c7a6"] ;
53 -> 77 ;
78 [label="YearBuiltXYearRemodAdd <= 3937770.0\nmse = 0.014\nsamples = 28\nvalue = 11.507", fillcolor="#f5ceb1"] ;
52 -> 78 ;
79 [label="WoodDeckSF <= 70.0\nmse = 0.009\nsamples = 26\nvalue = 11.488", fillcolor="#f5ceb3"] ;
78 -> 79 ;
80 [label="MasVnrType_BrkFaceXMasVnrArea <= 227.5\nmse = 0.004\nsamples = 18\nvalue = 11.53", fillcolor="#f5ccb0"] ;
79 -> 80 ;
81 [label="HeatingQC <= 1.5\nmse = 0.003\nsamples = 16\nvalue = 11.544", fillcolor="#f4ccaf"] ;
80 -> 81 ;
82 [label="mse = 0.0\nsamples = 1\nvalue = 11.408", fillcolor="#f6d2b9"] ;
81 -> 82 ;
83 [label="OverallQualXGrLivArea <= 4174.0\nmse = 0.002\nsamples = 15\nvalue = 11.553", fillcolor="#f4cbae"] ;
81 -> 83 ;
84 [label="Exterior1st_VinylSd <= 0.5\nmse = 0.0\nsamples = 4\nvalue = 11.605", fillcolor="#f4c9aa"] ;
83 -> 84 ;
85 [label="Neighborhood_Edwards <= 0.5\nmse = 0.0\nsamples = 3\nvalue = 11.611", fillcolor="#f4c9aa"] ;
84 -> 85 ;
86 [label="OverallQualXGarageYrBlt <= 7858.0\nmse = 0.0\nsamples = 2\nvalue = 11.608", fillcolor="#f4c9aa"] ;
85 -> 86 ;
87 [label="mse = 0.0\nsamples = 1\nvalue = 11.607", fillcolor="#f4c9aa"] ;
86 -> 87 ;
88 [label="mse = -0.0\nsamples = 1\nvalue = 11.608", fillcolor="#f4c9aa"] ;
86 -> 88 ;
89 [label="mse = 0.0\nsamples = 1\nvalue = 11.617", fillcolor="#f4c8a9"] ;
85 -> 89 ;
90 [label="mse = 0.0\nsamples = 1\nvalue = 11.585", fillcolor="#f4caab"] ;
84 -> 90 ;
91 [label="GarageFinishXGarageYrBlt <= 1983.0\nmse = 0.001\nsamples = 11\nvalue = 11.534", fillcolor="#f5ccaf"] ;
83 -> 91 ;
92 [label="BsmtUnfSF <= 76.5\nmse = 0.0\nsamples = 6\nvalue = 11.507", fillcolor="#f5ceb1"] ;
91 -> 92 ;
93 [label="ExterQualXYearBuilt <= 3906.0\nmse = 0.0\nsamples = 2\nvalue = 11.489", fillcolor="#f5ceb3"] ;
92 -> 93 ;
94 [label="mse = 0.0\nsamples = 1\nvalue = 11.496", fillcolor="#f5ceb2"] ;
93 -> 94 ;
95 [label="mse = 0.0\nsamples = 1\nvalue = 11.482", fillcolor="#f5cfb3"] ;
93 -> 95 ;
96 [label="YearRemodAdd <= 1995.5\nmse = 0.0\nsamples = 4\nvalue = 11.515", fillcolor="#f5cdb1"] ;
92 -> 96 ;
97 [label="mse = -0.0\nsamples = 3\nvalue = 11.513", fillcolor="#f5cdb1"] ;
96 -> 97 ;
98 [label="mse = -0.0\nsamples = 1\nvalue = 11.523", fillcolor="#f5cdb0"] ;
96 -> 98 ;
99 [label="ExterQualXTotalBsmtSF <= 1342.0\nmse = 0.0\nsamples = 5\nvalue = 11.568", fillcolor="#f4cbad"] ;
91 -> 99 ;
100 [label="GarageQualXGarageArea <= 1287.0\nmse = 0.0\nsamples = 4\nvalue = 11.575", fillcolor="#f4caac"] ;
99 -> 100 ;
101 [label="MoSold <= 9.5\nmse = 0.0\nsamples = 3\nvalue = 11.57", fillcolor="#f4cbad"] ;
100 -> 101 ;
102 [label="GarageFinishXOverallQual <= 8.0\nmse = 0.0\nsamples = 2\nvalue = 11.574", fillcolor="#f4caac"] ;
101 -> 102 ;
103 [label="mse = 0.0\nsamples = 1\nvalue = 11.571", fillcolor="#f4caac"] ;
102 -> 103 ;
104 [label="mse = 0.0\nsamples = 1\nvalue = 11.576", fillcolor="#f4caac"] ;
102 -> 104 ;
105 [label="mse = -0.0\nsamples = 1\nvalue = 11.562", fillcolor="#f4cbad"] ;
101 -> 105 ;
106 [label="mse = -0.0\nsamples = 1\nvalue = 11.59", fillcolor="#f4caab"] ;
100 -> 106 ;
107 [label="mse = 0.0\nsamples = 1\nvalue = 11.54", fillcolor="#f4ccaf"] ;
99 -> 107 ;
108 [label="2ndFlrSFXBedroomAbvGr <= 1354.5\nmse = 0.001\nsamples = 2\nvalue = 11.421", fillcolor="#f6d2b8"] ;
80 -> 108 ;
109 [label="mse = 0.0\nsamples = 1\nvalue = 11.456", fillcolor="#f5d0b5"] ;
108 -> 109 ;
110 [label="mse = -0.0\nsamples = 1\nvalue = 11.385", fillcolor="#f6d3ba"] ;
108 -> 110 ;
111 [label="BsmtQualXFoundation_PConc <= 1.5\nmse = 0.007\nsamples = 8\nvalue = 11.392", fillcolor="#f6d3ba"] ;
79 -> 111 ;
112 [label="BsmtUnfSFXTotalBsmtSF <= 60071.0\nmse = 0.002\nsamples = 7\nvalue = 11.364", fillcolor="#f6d4bc"] ;
111 -> 112 ;
113 [label="FullBathXTotRmsAbvGrd <= 5.5\nmse = 0.0\nsamples = 3\nvalue = 11.409", fillcolor="#f6d2b9"] ;
112 -> 113 ;
114 [label="ExterQualXOverallQual <= 9.0\nmse = 0.0\nsamples = 2\nvalue = 11.42", fillcolor="#f6d2b8"] ;
113 -> 114 ;
115 [label="mse = 0.0\nsamples = 1\nvalue = 11.419", fillcolor="#f6d2b8"] ;
114 -> 115 ;
116 [label="mse = 0.0\nsamples = 1\nvalue = 11.422", fillcolor="#f6d2b8"] ;
114 -> 116 ;
117 [label="mse = -0.0\nsamples = 1\nvalue = 11.385", fillcolor="#f6d3ba"] ;
113 -> 117 ;
118 [label="OverallCond <= 3.5\nmse = 0.0\nsamples = 4\nvalue = 11.331", fillcolor="#f7d6be"] ;
112 -> 118 ;
119 [label="mse = 0.0\nsamples = 1\nvalue = 11.35", fillcolor="#f6d5bd"] ;
118 -> 119 ;
120 [label="OverallQualXYearBuilt <= 7846.0\nmse = 0.0\nsamples = 3\nvalue = 11.325", fillcolor="#f7d6bf"] ;
118 -> 120 ;
121 [label="mse = 0.0\nsamples = 1\nvalue = 11.314", fillcolor="#f7d7c0"] ;
120 -> 121 ;
122 [label="MasVnrType_BrkFace <= 0.5\nmse = 0.0\nsamples = 2\nvalue = 11.33", fillcolor="#f7d6be"] ;
120 -> 122 ;
123 [label="mse = 0.0\nsamples = 1\nvalue = 11.333", fillcolor="#f6d6be"] ;
122 -> 123 ;
124 [label="mse = 0.0\nsamples = 1\nvalue = 11.327", fillcolor="#f7d6bf"] ;
122 -> 124 ;
125 [label="mse = 0.0\nsamples = 1\nvalue = 11.59", fillcolor="#f4caab"] ;
111 -> 125 ;
126 [label="LotArea <= 6090.0\nmse = 0.007\nsamples = 2\nvalue = 11.76", fillcolor="#f2c29e"] ;
78 -> 126 ;
127 [label="mse = 0.0\nsamples = 1\nvalue = 11.678", fillcolor="#f3c5a5"] ;
126 -> 127 ;
128 [label="mse = 0.0\nsamples = 1\nvalue = 11.842", fillcolor="#f2be98"] ;
126 -> 128 ;
129 [label="HeatingQCXGarageYrBlt <= 5878.5\nmse = 0.026\nsamples = 37\nvalue = 11.696", fillcolor="#f3c5a3"] ;
47 -> 129 ;
130 [label="OverallCond <= 3.5\nmse = 0.014\nsamples = 23\nvalue = 11.615", fillcolor="#f4c8a9"] ;
129 -> 130 ;
131 [label="OverallQualX1stFlrSF <= 3821.0\nmse = 0.009\nsamples = 2\nvalue = 11.397", fillcolor="#f6d3b9"] ;
130 -> 131 ;
132 [label="mse = 0.0\nsamples = 1\nvalue = 11.302", fillcolor="#f7d7c0"] ;
131 -> 132 ;
133 [label="mse = -0.0\nsamples = 1\nvalue = 11.493", fillcolor="#f5ceb2"] ;
131 -> 133 ;
134 [label="Neighborhood_NAmesXFoundation_CBlock <= 0.5\nmse = 0.009\nsamples = 21\nvalue = 11.636", fillcolor="#f4c7a8"] ;
130 -> 134 ;
135 [label="MiscFeature_Missing <= 0.5\nmse = 0.008\nsamples = 19\nvalue = 11.62", fillcolor="#f4c8a9"] ;
134 -> 135 ;
136 [label="mse = 0.0\nsamples = 1\nvalue = 11.408", fillcolor="#f6d2b9"] ;
135 -> 136 ;
137 [label="GarageCondXGarageArea <= 675.0\nmse = 0.005\nsamples = 18\nvalue = 11.631", fillcolor="#f4c8a8"] ;
135 -> 137 ;
138 [label="YearBuiltXYearRemodAdd <= 3830612.5\nmse = 0.002\nsamples = 5\nvalue = 11.548", fillcolor="#f4ccae"] ;
137 -> 138 ;
139 [label="GarageFinishXYearBuilt <= 1932.5\nmse = 0.0\nsamples = 3\nvalue = 11.581", fillcolor="#f4caac"] ;
138 -> 139 ;
140 [label="KitchenQualXFullBath <= 3.0\nmse = 0.0\nsamples = 2\nvalue = 11.577", fillcolor="#f4caac"] ;
139 -> 140 ;
141 [label="mse = 0.0\nsamples = 1\nvalue = 11.581", fillcolor="#f4caac"] ;
140 -> 141 ;
142 [label="mse = 0.0\nsamples = 1\nvalue = 11.574", fillcolor="#f4caac"] ;
140 -> 142 ;
143 [label="mse = -0.0\nsamples = 1\nvalue = 11.59", fillcolor="#f4caab"] ;
139 -> 143 ;
144 [label="Heating_GasAXCentralAir_Y <= 0.5\nmse = 0.0\nsamples = 2\nvalue = 11.498", fillcolor="#f5ceb2"] ;
138 -> 144 ;
145 [label="mse = 0.0\nsamples = 1\nvalue = 11.513", fillcolor="#f5cdb1"] ;
144 -> 145 ;
146 [label="mse = 0.0\nsamples = 1\nvalue = 11.482", fillcolor="#f5cfb3"] ;
144 -> 146 ;
147 [label="BsmtQualXGarageArea <= 739.0\nmse = 0.003\nsamples = 13\nvalue = 11.663", fillcolor="#f3c6a6"] ;
137 -> 147 ;
148 [label="2ndFlrSF <= 216.0\nmse = 0.001\nsamples = 3\nvalue = 11.73", fillcolor="#f3c3a1"] ;
147 -> 148 ;
149 [label="mse = 0.0\nsamples = 1\nvalue = 11.686", fillcolor="#f3c5a4"] ;
148 -> 149 ;
150 [label="BsmtQualXGarageCars <= 1.5\nmse = 0.0\nsamples = 2\nvalue = 11.752", fillcolor="#f2c29f"] ;
148 -> 150 ;
151 [label="mse = 0.0\nsamples = 1\nvalue = 11.744", fillcolor="#f2c2a0"] ;
150 -> 151 ;
152 [label="mse = 0.0\nsamples = 1\nvalue = 11.76", fillcolor="#f2c29e"] ;
150 -> 152 ;
153 [label="GarageYrBlt <= 1942.5\nmse = 0.002\nsamples = 10\nvalue = 11.644", fillcolor="#f3c7a7"] ;
147 -> 153 ;
154 [label="OverallQualX1stFlrSF <= 3354.0\nmse = 0.0\nsamples = 2\nvalue = 11.573", fillcolor="#f4caac"] ;
153 -> 154 ;
155 [label="mse = 0.0\nsamples = 1\nvalue = 11.584", fillcolor="#f4caac"] ;
154 -> 155 ;
156 [label="mse = -0.0\nsamples = 1\nvalue = 11.562", fillcolor="#f4cbad"] ;
154 -> 156 ;
157 [label="HouseStyle_2StoryXTotRmsAbvGrd <= 2.0\nmse = 0.001\nsamples = 8\nvalue = 11.661", fillcolor="#f3c6a6"] ;
153 -> 157 ;
158 [label="LotShape_Reg <= 0.5\nmse = 0.0\nsamples = 5\nvalue = 11.677", fillcolor="#f3c6a5"] ;
157 -> 158 ;
159 [label="mse = 0.0\nsamples = 1\nvalue = 11.709", fillcolor="#f3c4a2"] ;
158 -> 159 ;
160 [label="BsmtFinType1XBsmtFullBath <= 0.5\nmse = 0.0\nsamples = 4\nvalue = 11.669", fillcolor="#f3c6a5"] ;
158 -> 160 ;
161 [label="GarageFinishXGarageQual <= 2.5\nmse = 0.0\nsamples = 3\nvalue = 11.664", fillcolor="#f3c6a6"] ;
160 -> 161 ;
162 [label="mse = 0.0\nsamples = 1\nvalue = 11.67", fillcolor="#f3c6a5"] ;
161 -> 162 ;
163 [label="mse = -0.0\nsamples = 2\nvalue = 11.661", fillcolor="#f3c6a6"] ;
161 -> 163 ;
164 [label="mse = -0.0\nsamples = 1\nvalue = 11.683", fillcolor="#f3c5a4"] ;
160 -> 164 ;
165 [label="BsmtQualXTotalBsmtSF <= 1088.0\nmse = 0.0\nsamples = 3\nvalue = 11.635", fillcolor="#f4c7a8"] ;
157 -> 165 ;
166 [label="mse = 0.0\nsamples = 1\nvalue = 11.653", fillcolor="#f3c7a6"] ;
165 -> 166 ;
167 [label="mse = -0.0\nsamples = 2\nvalue = 11.626", fillcolor="#f4c8a8"] ;
165 -> 167 ;
168 [label="TotalBsmtSFXGarageCars <= 384.0\nmse = 0.0\nsamples = 2\nvalue = 11.794", fillcolor="#f2c09c"] ;
134 -> 168 ;
169 [label="mse = 0.0\nsamples = 1\nvalue = 11.813", fillcolor="#f2bf9b"] ;
168 -> 169 ;
170 [label="mse = 0.0\nsamples = 1\nvalue = 11.775", fillcolor="#f2c19d"] ;
168 -> 170 ;
171 [label="MSSubClass_80 <= 0.5\nmse = 0.017\nsamples = 14\nvalue = 11.829", fillcolor="#f2be99"] ;
129 -> 171 ;
172 [label="YearBuiltXGarageYrBlt <= 3825252.5\nmse = 0.01\nsamples = 12\nvalue = 11.792", fillcolor="#f2c09c"] ;
171 -> 172 ;
173 [label="BsmtQualXTotalBsmtSF <= 1728.0\nmse = 0.004\nsamples = 8\nvalue = 11.846", fillcolor="#f1be98"] ;
172 -> 173 ;
174 [label="1stFlrSFXGrLivArea <= 1254960.0\nmse = 0.001\nsamples = 6\nvalue = 11.814", fillcolor="#f2bf9a"] ;
173 -> 174 ;
175 [label="FullBathXGarageArea <= 648.0\nmse = 0.0\nsamples = 2\nvalue = 11.771", fillcolor="#f2c19e"] ;
174 -> 175 ;
176 [label="mse = 0.0\nsamples = 1\nvalue = 11.752", fillcolor="#f2c29f"] ;
175 -> 176 ;
177 [label="mse = 0.0\nsamples = 1\nvalue = 11.791", fillcolor="#f2c09c"] ;
175 -> 177 ;
178 [label="YearRemodAddXGarageCars <= 2948.5\nmse = 0.0\nsamples = 4\nvalue = 11.835", fillcolor="#f2be99"] ;
174 -> 178 ;
179 [label="KitchenQualXGarageCars <= 1.5\nmse = 0.0\nsamples = 2\nvalue = 11.822", fillcolor="#f2bf9a"] ;
178 -> 179 ;
180 [label="mse = 0.0\nsamples = 1\nvalue = 11.831", fillcolor="#f2be99"] ;
179 -> 180 ;
181 [label="mse = 0.0\nsamples = 1\nvalue = 11.813", fillcolor="#f2bf9b"] ;
179 -> 181 ;
182 [label="MoSold <= 5.5\nmse = 0.0\nsamples = 2\nvalue = 11.848", fillcolor="#f1bd98"] ;
178 -> 182 ;
183 [label="mse = 0.0\nsamples = 1\nvalue = 11.849", fillcolor="#f1bd98"] ;
182 -> 183 ;
184 [label="mse = 0.0\nsamples = 1\nvalue = 11.847", fillcolor="#f1bd98"] ;
182 -> 184 ;
185 [label="GarageType_Detchd <= 0.5\nmse = 0.002\nsamples = 2\nvalue = 11.941", fillcolor="#f1b991"] ;
173 -> 185 ;
186 [label="mse = 0.0\nsamples = 1\nvalue = 11.983", fillcolor="#f0b78e"] ;
185 -> 186 ;
187 [label="mse = 0.0\nsamples = 1\nvalue = 11.898", fillcolor="#f1bb94"] ;
185 -> 187 ;
188 [label="SaleType_WD <= 0.5\nmse = 0.004\nsamples = 4\nvalue = 11.684", fillcolor="#f3c5a4"] ;
172 -> 188 ;
189 [label="mse = 0.0\nsamples = 1\nvalue = 11.59", fillcolor="#f4caab"] ;
188 -> 189 ;
190 [label="2ndFlrSF <= 525.5\nmse = 0.001\nsamples = 3\nvalue = 11.715", fillcolor="#f3c4a2"] ;
188 -> 190 ;
191 [label="mse = 0.0\nsamples = 2\nvalue = 11.695", fillcolor="#f3c5a3"] ;
190 -> 191 ;
192 [label="mse = 0.0\nsamples = 1\nvalue = 11.756", fillcolor="#f2c29f"] ;
190 -> 192 ;
193 [label="HeatingQCXOverallQual <= 17.5\nmse = 0.0\nsamples = 2\nvalue = 12.051", fillcolor="#efb489"] ;
171 -> 193 ;
194 [label="mse = 0.0\nsamples = 1\nvalue = 12.029", fillcolor="#f0b58b"] ;
193 -> 194 ;
195 [label="mse = 0.0\nsamples = 1\nvalue = 12.073", fillcolor="#efb387"] ;
193 -> 195 ;
196 [label="LotAreaXGrLivArea <= 9708175.5\nmse = 0.028\nsamples = 171\nvalue = 11.723", fillcolor="#f3c3a1"] ;
46 -> 196 ;
197 [label="OverallCond <= 3.5\nmse = 0.023\nsamples = 103\nvalue = 11.669", fillcolor="#f3c6a5"] ;
196 -> 197 ;
198 [label="TotalBsmtSFXGarageArea <= 162409.0\nmse = 0.008\nsamples = 2\nvalue = 11.201", fillcolor="#f8dcc8"] ;
197 -> 198 ;
199 [label="mse = 0.0\nsamples = 1\nvalue = 11.29", fillcolor="#f7d8c1"] ;
198 -> 199 ;
200 [label="mse = -0.0\nsamples = 1\nvalue = 11.112", fillcolor="#f9e0cf"] ;
198 -> 200 ;
201 [label="OverallQualXYearBuilt <= 9775.0\nmse = 0.019\nsamples = 101\nvalue = 11.679", fillcolor="#f3c5a5"] ;
197 -> 201 ;
202 [label="HeatingQCXYearBuilt <= 5698.5\nmse = 0.015\nsamples = 33\nvalue = 11.596", fillcolor="#f4c9ab"] ;
201 -> 202 ;
203 [label="BsmtQualXYearBuilt <= 5791.5\nmse = 0.014\nsamples = 13\nvalue = 11.512", fillcolor="#f5cdb1"] ;
202 -> 203 ;
204 [label="KitchenQualXGarageArea <= 480.0\nmse = 0.005\nsamples = 5\nvalue = 11.389", fillcolor="#f6d3ba"] ;
203 -> 204 ;
205 [label="TotRmsAbvGrd <= 5.5\nmse = 0.0\nsamples = 2\nvalue = 11.464", fillcolor="#f5d0b4"] ;
204 -> 205 ;
206 [label="mse = 0.0\nsamples = 1\nvalue = 11.477", fillcolor="#f5cfb3"] ;
205 -> 206 ;
207 [label="mse = -0.0\nsamples = 1\nvalue = 11.451", fillcolor="#f5d0b5"] ;
205 -> 207 ;
208 [label="OverallQualXGrLivArea <= 4875.0\nmse = 0.002\nsamples = 3\nvalue = 11.34", fillcolor="#f6d5be"] ;
204 -> 208 ;
209 [label="mse = 0.0\nsamples = 1\nvalue = 11.284", fillcolor="#f7d8c2"] ;
208 -> 209 ;
210 [label="YearRemodAddXFullBath <= 1978.0\nmse = 0.0\nsamples = 2\nvalue = 11.368", fillcolor="#f6d4bc"] ;
208 -> 210 ;
211 [label="mse = 0.0\nsamples = 1\nvalue = 11.385", fillcolor="#f6d3ba"] ;
210 -> 211 ;
212 [label="mse = 0.0\nsamples = 1\nvalue = 11.35", fillcolor="#f6d5bd"] ;
210 -> 212 ;
213 [label="KitchenAbvGr <= 1.5\nmse = 0.005\nsamples = 8\nvalue = 11.588", fillcolor="#f4caab"] ;
203 -> 213 ;
214 [label="HeatingQCXKitchenQual <= 3.0\nmse = 0.002\nsamples = 7\nvalue = 11.61", fillcolor="#f4c9aa"] ;
213 -> 214 ;
215 [label="mse = 0.0\nsamples = 1\nvalue = 11.724", fillcolor="#f3c3a1"] ;
214 -> 215 ;
216 [label="GrLivAreaXGarageCars <= 1056.5\nmse = 0.0\nsamples = 6\nvalue = 11.591", fillcolor="#f4caab"] ;
214 -> 216 ;
217 [label="OverallQualX1stFlrSF <= 4299.5\nmse = 0.0\nsamples = 3\nvalue = 11.576", fillcolor="#f4caac"] ;
216 -> 217 ;
218 [label="MSSubClass_20XHouseStyle_1Story <= 0.5\nmse = 0.0\nsamples = 2\nvalue = 11.583", fillcolor="#f4caac"] ;
217 -> 218 ;
219 [label="mse = 0.0\nsamples = 1\nvalue = 11.585", fillcolor="#f4caab"] ;
218 -> 219 ;
220 [label="mse = -0.0\nsamples = 1\nvalue = 11.581", fillcolor="#f4caac"] ;
218 -> 220 ;
221 [label="mse = -0.0\nsamples = 1\nvalue = 11.562", fillcolor="#f4cbad"] ;
217 -> 221 ;
222 [label="KitchenQualXYearRemodAdd <= 5935.5\nmse = 0.0\nsamples = 3\nvalue = 11.605", fillcolor="#f4c9aa"] ;
216 -> 222 ;
223 [label="mse = -0.0\nsamples = 2\nvalue = 11.608", fillcolor="#f4c9aa"] ;
222 -> 223 ;
224 [label="mse = 0.0\nsamples = 1\nvalue = 11.599", fillcolor="#f4c9aa"] ;
222 -> 224 ;
225 [label="mse = 0.0\nsamples = 1\nvalue = 11.44", fillcolor="#f5d1b6"] ;
213 -> 225 ;
226 [label="LotAreaXGrLivArea <= 9195780.0\nmse = 0.008\nsamples = 20\nvalue = 11.651", fillcolor="#f3c7a7"] ;
202 -> 226 ;
227 [label="Exterior1st_VinylSdXYearBuilt <= 1954.5\nmse = 0.005\nsamples = 18\nvalue = 11.633", fillcolor="#f4c8a8"] ;
226 -> 227 ;
228 [label="OverallQualXYearBuilt <= 9655.0\nmse = 0.003\nsamples = 16\nvalue = 11.616", fillcolor="#f4c8a9"] ;
227 -> 228 ;
229 [label="HeatingQCXGarageYrBlt <= 7896.0\nmse = 0.002\nsamples = 9\nvalue = 11.58", fillcolor="#f4caac"] ;
228 -> 229 ;
230 [label="GrLivAreaXTotRmsAbvGrd <= 6223.0\nmse = 0.001\nsamples = 6\nvalue = 11.605", fillcolor="#f4c9aa"] ;
229 -> 230 ;
231 [label="MoSold <= 4.5\nmse = 0.0\nsamples = 5\nvalue = 11.592", fillcolor="#f4c9ab"] ;
230 -> 231 ;
232 [label="mse = 0.0\nsamples = 1\nvalue = 11.576", fillcolor="#f4caac"] ;
231 -> 232 ;
233 [label="BedroomAbvGrXTotRmsAbvGrd <= 9.0\nmse = 0.0\nsamples = 4\nvalue = 11.597", fillcolor="#f4c9ab"] ;
231 -> 233 ;
234 [label="MoSold <= 10.0\nmse = 0.0\nsamples = 2\nvalue = 11.592", fillcolor="#f4caab"] ;
233 -> 234 ;
235 [label="mse = 0.0\nsamples = 1\nvalue = 11.589", fillcolor="#f4caab"] ;
234 -> 235 ;
236 [label="mse = 0.0\nsamples = 1\nvalue = 11.594", fillcolor="#f4c9ab"] ;
234 -> 236 ;
237 [label="OverallQualXGarageCars <= 2.0\nmse = 0.0\nsamples = 2\nvalue = 11.601", fillcolor="#f4c9aa"] ;
233 -> 237 ;
238 [label="mse = 0.0\nsamples = 1\nvalue = 11.604", fillcolor="#f4c9aa"] ;
237 -> 238 ;
239 [label="mse = 0.0\nsamples = 1\nvalue = 11.599", fillcolor="#f4c9aa"] ;
237 -> 239 ;
240 [label="mse = 0.0\nsamples = 1\nvalue = 11.67", fillcolor="#f3c6a5"] ;
230 -> 240 ;
241 [label="Foundation_PConcXFullBath <= 0.5\nmse = 0.0\nsamples = 3\nvalue = 11.53", fillcolor="#f5ccb0"] ;
229 -> 241 ;
242 [label="Foundation_CBlock <= 0.5\nmse = 0.0\nsamples = 2\nvalue = 11.539", fillcolor="#f4ccaf"] ;
241 -> 242 ;
243 [label="mse = 0.0\nsamples = 1\nvalue = 11.533", fillcolor="#f5ccaf"] ;
242 -> 243 ;
244 [label="mse = 0.0\nsamples = 1\nvalue = 11.544", fillcolor="#f4ccae"] ;
242 -> 244 ;
245 [label="mse = -0.0\nsamples = 1\nvalue = 11.512", fillcolor="#f5cdb1"] ;
241 -> 245 ;
246 [label="Neighborhood_NAmes <= 0.5\nmse = 0.001\nsamples = 7\nvalue = 11.662", fillcolor="#f3c6a6"] ;
228 -> 246 ;
247 [label="MSZoning_RL <= 0.5\nmse = 0.0\nsamples = 6\nvalue = 11.671", fillcolor="#f3c6a5"] ;
246 -> 247 ;
248 [label="mse = 0.0\nsamples = 2\nvalue = 11.653", fillcolor="#f3c7a6"] ;
247 -> 248 ;
249 [label="KitchenQualXGrLivArea <= 1175.0\nmse = 0.0\nsamples = 4\nvalue = 11.68", fillcolor="#f3c5a4"] ;
247 -> 249 ;
250 [label="mse = 0.0\nsamples = 1\nvalue = 11.693", fillcolor="#f3c5a3"] ;
249 -> 250 ;
251 [label="LotFrontageXLotArea <= 478125.0\nmse = 0.0\nsamples = 3\nvalue = 11.676", fillcolor="#f3c6a5"] ;
249 -> 251 ;
252 [label="mse = 0.0\nsamples = 2\nvalue = 11.678", fillcolor="#f3c5a5"] ;
251 -> 252 ;
253 [label="mse = -0.0\nsamples = 1\nvalue = 11.67", fillcolor="#f3c6a5"] ;
251 -> 253 ;
254 [label="mse = 0.0\nsamples = 1\nvalue = 11.608", fillcolor="#f4c9aa"] ;
246 -> 254 ;
255 [label="GarageFinishXGarageYrBlt <= 978.0\nmse = 0.002\nsamples = 2\nvalue = 11.772", fillcolor="#f2c19e"] ;
227 -> 255 ;
256 [label="mse = 0.0\nsamples = 1\nvalue = 11.725", fillcolor="#f3c3a1"] ;
255 -> 256 ;
257 [label="mse = -0.0\nsamples = 1\nvalue = 11.819", fillcolor="#f2bf9a"] ;
255 -> 257 ;
258 [label="GarageYrBlt <= 1934.0\nmse = 0.0\nsamples = 2\nvalue = 11.815", fillcolor="#f2bf9a"] ;
226 -> 258 ;
259 [label="mse = 0.0\nsamples = 1\nvalue = 11.831", fillcolor="#f2be99"] ;
258 -> 259 ;
260 [label="mse = 0.0\nsamples = 1\nvalue = 11.798", fillcolor="#f2c09c"] ;
258 -> 260 ;
261 [label="EnclosedPorch <= 228.0\nmse = 0.016\nsamples = 68\nvalue = 11.719", fillcolor="#f3c4a2"] ;
201 -> 261 ;
262 [label="1stFlrSF <= 965.0\nmse = 0.01\nsamples = 66\nvalue = 11.728", fillcolor="#f3c3a1"] ;
261 -> 262 ;
263 [label="BsmtFinSF1XTotalBsmtSF <= 387072.0\nmse = 0.009\nsamples = 50\nvalue = 11.701", fillcolor="#f3c4a3"] ;
262 -> 263 ;
264 [label="YearBuiltXGarageYrBlt <= 3895682.0\nmse = 0.008\nsamples = 29\nvalue = 11.664", fillcolor="#f3c6a6"] ;
263 -> 264 ;
265 [label="YearRemodAddXGarageYrBlt <= 3876042.0\nmse = 0.006\nsamples = 27\nvalue = 11.678", fillcolor="#f3c5a5"] ;
264 -> 265 ;
266 [label="1stFlrSFXGrLivArea <= 1149025.0\nmse = 0.005\nsamples = 19\nvalue = 11.648", fillcolor="#f3c7a7"] ;
265 -> 266 ;
267 [label="BsmtFinType1XBsmtFinSF1 <= 1692.0\nmse = 0.003\nsamples = 17\nvalue = 11.633", fillcolor="#f4c8a8"] ;
266 -> 267 ;
268 [label="BsmtUnfSFXTotalBsmtSF <= 420768.0\nmse = 0.002\nsamples = 15\nvalue = 11.647", fillcolor="#f3c7a7"] ;
267 -> 268 ;
269 [label="KitchenQualXGarageFinish <= 2.5\nmse = 0.001\nsamples = 7\nvalue = 11.672", fillcolor="#f3c6a5"] ;
268 -> 269 ;
270 [label="OverallQualXGrLivArea <= 7818.5\nmse = 0.0\nsamples = 5\nvalue = 11.655", fillcolor="#f3c7a6"] ;
269 -> 270 ;
271 [label="MoSold <= 9.5\nmse = 0.0\nsamples = 4\nvalue = 11.662", fillcolor="#f3c6a6"] ;
270 -> 271 ;
272 [label="ExterQualXGarageYrBlt <= 3947.0\nmse = 0.0\nsamples = 2\nvalue = 11.672", fillcolor="#f3c6a5"] ;
271 -> 272 ;
273 [label="mse = 0.0\nsamples = 1\nvalue = 11.674", fillcolor="#f3c6a5"] ;
272 -> 273 ;
274 [label="mse = 0.0\nsamples = 1\nvalue = 11.669", fillcolor="#f3c6a5"] ;
272 -> 274 ;
275 [label="mse = 0.0\nsamples = 2\nvalue = 11.653", fillcolor="#f3c7a6"] ;
271 -> 275 ;
276 [label="mse = -0.0\nsamples = 1\nvalue = 11.626", fillcolor="#f4c8a8"] ;
270 -> 276 ;
277 [label="GarageFinishXYearRemodAdd <= 2945.5\nmse = 0.0\nsamples = 2\nvalue = 11.716", fillcolor="#f3c4a2"] ;
269 -> 277 ;
278 [label="mse = 0.0\nsamples = 1\nvalue = 11.695", fillcolor="#f3c5a3"] ;
277 -> 278 ;
279 [label="mse = 0.0\nsamples = 1\nvalue = 11.736", fillcolor="#f3c3a0"] ;
277 -> 279 ;
280 [label="KitchenQualXTotalBsmtSF <= 1726.0\nmse = 0.001\nsamples = 8\nvalue = 11.624", fillcolor="#f4c8a9"] ;
268 -> 280 ;
281 [label="GarageFinishXYearRemodAdd <= 2946.5\nmse = 0.001\nsamples = 2\nvalue = 11.672", fillcolor="#f3c6a5"] ;
280 -> 281 ;
282 [label="mse = 0.0\nsamples = 1\nvalue = 11.648", fillcolor="#f3c7a7"] ;
281 -> 282 ;
283 [label="mse = 0.0\nsamples = 1\nvalue = 11.695", fillcolor="#f3c5a3"] ;
281 -> 283 ;
284 [label="ExterQualXYearRemodAdd <= 3919.0\nmse = 0.0\nsamples = 6\nvalue = 11.608", fillcolor="#f4c9aa"] ;
280 -> 284 ;
285 [label="mse = 0.0\nsamples = 1\nvalue = 11.631", fillcolor="#f4c8a8"] ;
284 -> 285 ;
286 [label="BsmtQualXTotalBsmtSF <= 2763.0\nmse = 0.0\nsamples = 5\nvalue = 11.603", fillcolor="#f4c9aa"] ;
284 -> 286 ;
287 [label="BsmtUnfSFXTotalBsmtSF <= 783306.0\nmse = 0.0\nsamples = 4\nvalue = 11.607", fillcolor="#f4c9aa"] ;
286 -> 287 ;
288 [label="GrLivAreaXFullBath <= 898.0\nmse = 0.0\nsamples = 3\nvalue = 11.608", fillcolor="#f4c9aa"] ;
287 -> 288 ;
289 [label="mse = -0.0\nsamples = 2\nvalue = 11.608", fillcolor="#f4c9aa"] ;
288 -> 289 ;
290 [label="mse = 0.0\nsamples = 1\nvalue = 11.607", fillcolor="#f4c9aa"] ;
288 -> 290 ;
291 [label="mse = -0.0\nsamples = 1\nvalue = 11.604", fillcolor="#f4c9aa"] ;
287 -> 291 ;
292 [label="mse = 0.0\nsamples = 1\nvalue = 11.59", fillcolor="#f4caab"] ;
286 -> 292 ;
293 [label="GarageYrBltXGarageArea <= 572748.0\nmse = 0.0\nsamples = 2\nvalue = 11.531", fillcolor="#f5ccaf"] ;
267 -> 293 ;
294 [label="mse = 0.0\nsamples = 1\nvalue = 11.513", fillcolor="#f5cdb1"] ;
293 -> 294 ;
295 [label="mse = -0.0\nsamples = 1\nvalue = 11.548", fillcolor="#f4ccae"] ;
293 -> 295 ;
296 [label="ScreenPorch <= 60.0\nmse = 0.0\nsamples = 2\nvalue = 11.775", fillcolor="#f2c19d"] ;
266 -> 296 ;
297 [label="mse = 0.0\nsamples = 1\nvalue = 11.794", fillcolor="#f2c09c"] ;
296 -> 297 ;
298 [label="mse = -0.0\nsamples = 1\nvalue = 11.756", fillcolor="#f2c29f"] ;
296 -> 298 ;
299 [label="BsmtHalfBath <= 0.5\nmse = 0.002\nsamples = 8\nvalue = 11.751", fillcolor="#f2c29f"] ;
265 -> 299 ;
300 [label="OverallQual <= 6.5\nmse = 0.0\nsamples = 6\nvalue = 11.772", fillcolor="#f2c19e"] ;
299 -> 300 ;
301 [label="OverallQualXYearRemodAdd <= 12003.0\nmse = 0.0\nsamples = 5\nvalue = 11.764", fillcolor="#f2c19e"] ;
300 -> 301 ;
302 [label="BsmtQualXGarageArea <= 844.5\nmse = 0.0\nsamples = 3\nvalue = 11.769", fillcolor="#f2c19e"] ;
301 -> 302 ;
303 [label="mse = 0.0\nsamples = 1\nvalue = 11.775", fillcolor="#f2c19d"] ;
302 -> 303 ;
304 [label="TotalBsmtSFX1stFlrSF <= 811296.0\nmse = 0.0\nsamples = 2\nvalue = 11.766", fillcolor="#f2c19e"] ;
302 -> 304 ;
305 [label="mse = 0.0\nsamples = 1\nvalue = 11.764", fillcolor="#f2c19e"] ;
304 -> 305 ;
306 [label="mse = 0.0\nsamples = 1\nvalue = 11.768", fillcolor="#f2c19e"] ;
304 -> 306 ;
307 [label="OverallQualXTotalBsmtSF <= 4278.0\nmse = 0.0\nsamples = 2\nvalue = 11.756", fillcolor="#f2c29f"] ;
301 -> 307 ;
308 [label="mse = 0.0\nsamples = 1\nvalue = 11.752", fillcolor="#f2c29f"] ;
307 -> 308 ;
309 [label="mse = 0.0\nsamples = 1\nvalue = 11.76", fillcolor="#f2c29e"] ;
307 -> 309 ;
310 [label="mse = 0.0\nsamples = 1\nvalue = 11.813", fillcolor="#f2bf9b"] ;
300 -> 310 ;
311 [label="GarageYrBltXGarageCars <= 1965.0\nmse = 0.0\nsamples = 2\nvalue = 11.687", fillcolor="#f3c5a4"] ;
299 -> 311 ;
312 [label="mse = 0.0\nsamples = 1\nvalue = 11.695", fillcolor="#f3c5a3"] ;
311 -> 312 ;
313 [label="mse = 0.0\nsamples = 1\nvalue = 11.678", fillcolor="#f3c5a5"] ;
311 -> 313 ;
314 [label="FullBath <= 1.5\nmse = 0.002\nsamples = 2\nvalue = 11.466", fillcolor="#f5cfb4"] ;
264 -> 314 ;
315 [label="mse = 0.0\nsamples = 1\nvalue = 11.424", fillcolor="#f6d1b7"] ;
314 -> 315 ;
316 [label="mse = -0.0\nsamples = 1\nvalue = 11.508", fillcolor="#f5cdb1"] ;
314 -> 316 ;
317 [label="FullBathXGarageArea <= 284.0\nmse = 0.004\nsamples = 21\nvalue = 11.752", fillcolor="#f2c29f"] ;
263 -> 317 ;
318 [label="LotAreaXGrLivArea <= 5789603.0\nmse = 0.002\nsamples = 8\nvalue = 11.694", fillcolor="#f3c5a3"] ;
317 -> 318 ;
319 [label="MoSold <= 6.0\nmse = 0.0\nsamples = 2\nvalue = 11.758", fillcolor="#f2c29f"] ;
318 -> 319 ;
320 [label="mse = 0.0\nsamples = 1\nvalue = 11.736", fillcolor="#f3c3a0"] ;
319 -> 320 ;
321 [label="mse = 0.0\nsamples = 1\nvalue = 11.779", fillcolor="#f2c19d"] ;
319 -> 321 ;
322 [label="GrLivAreaXBedroomAbvGr <= 2599.5\nmse = 0.001\nsamples = 6\nvalue = 11.672", fillcolor="#f3c6a5"] ;
318 -> 322 ;
323 [label="Exterior1st_Wd Sdng <= 0.5\nmse = 0.0\nsamples = 3\nvalue = 11.647", fillcolor="#f3c7a7"] ;
322 -> 323 ;
324 [label="mse = 0.0\nsamples = 1\nvalue = 11.626", fillcolor="#f4c8a8"] ;
323 -> 324 ;
325 [label="GarageCondXGarageCars <= 1.5\nmse = 0.0\nsamples = 2\nvalue = 11.657", fillcolor="#f3c6a6"] ;
323 -> 325 ;
326 [label="mse = 0.0\nsamples = 1\nvalue = 11.666", fillcolor="#f3c6a5"] ;
325 -> 326 ;
327 [label="mse = -0.0\nsamples = 1\nvalue = 11.648", fillcolor="#f3c7a7"] ;
325 -> 327 ;
328 [label="YrSold <= 2009.0\nmse = 0.0\nsamples = 3\nvalue = 11.698", fillcolor="#f3c4a3"] ;
322 -> 328 ;
329 [label="mse = 0.0\nsamples = 2\nvalue = 11.691", fillcolor="#f3c5a4"] ;
328 -> 329 ;
330 [label="mse = -0.0\nsamples = 1\nvalue = 11.712", fillcolor="#f3c4a2"] ;
328 -> 330 ;
331 [label="YearBuiltXYearRemodAdd <= 3911342.5\nmse = 0.003\nsamples = 13\nvalue = 11.787", fillcolor="#f2c09c"] ;
317 -> 331 ;
332 [label="BsmtExposure <= 2.0\nmse = 0.001\nsamples = 6\nvalue = 11.743", fillcolor="#f2c2a0"] ;
331 -> 332 ;
333 [label="GarageArea <= 322.0\nmse = 0.0\nsamples = 4\nvalue = 11.759", fillcolor="#f2c29f"] ;
332 -> 333 ;
334 [label="OverallCond <= 6.5\nmse = 0.0\nsamples = 2\nvalue = 11.775", fillcolor="#f2c19d"] ;
333 -> 334 ;
335 [label="mse = 0.0\nsamples = 1\nvalue = 11.775", fillcolor="#f2c19d"] ;
334 -> 335 ;
336 [label="mse = 0.0\nsamples = 1\nvalue = 11.775", fillcolor="#f2c19d"] ;
334 -> 336 ;
337 [label="2ndFlrSF <= 275.0\nmse = 0.0\nsamples = 2\nvalue = 11.744", fillcolor="#f2c2a0"] ;
333 -> 337 ;
338 [label="mse = 0.0\nsamples = 1\nvalue = 11.736", fillcolor="#f3c3a0"] ;
337 -> 338 ;
339 [label="mse = -0.0\nsamples = 1\nvalue = 11.752", fillcolor="#f2c29f"] ;
337 -> 339 ;
340 [label="BsmtUnfSFXTotalBsmtSF <= 154464.0\nmse = 0.0\nsamples = 2\nvalue = 11.71", fillcolor="#f3c4a2"] ;
332 -> 340 ;
341 [label="mse = 0.0\nsamples = 1\nvalue = 11.72", fillcolor="#f3c3a1"] ;
340 -> 341 ;
342 [label="mse = -0.0\nsamples = 1\nvalue = 11.699", fillcolor="#f3c4a3"] ;
340 -> 342 ;
343 [label="TotalBsmtSF <= 879.0\nmse = 0.001\nsamples = 7\nvalue = 11.825", fillcolor="#f2be9a"] ;
331 -> 343 ;
344 [label="BsmtFinSF1XTotalBsmtSF <= 405516.0\nmse = 0.0\nsamples = 4\nvalue = 11.801", fillcolor="#f2c09b"] ;
343 -> 344 ;
345 [label="mse = 0.0\nsamples = 1\nvalue = 11.775", fillcolor="#f2c19d"] ;
344 -> 345 ;
346 [label="ExterQualXGarageYrBlt <= 4965.0\nmse = 0.0\nsamples = 3\nvalue = 11.809", fillcolor="#f2bf9b"] ;
344 -> 346 ;
347 [label="BsmtQualXYearRemodAdd <= 8002.0\nmse = 0.0\nsamples = 2\nvalue = 11.801", fillcolor="#f2c09b"] ;
346 -> 347 ;
348 [label="mse = 0.0\nsamples = 1\nvalue = 11.798", fillcolor="#f2c09c"] ;
347 -> 348 ;
349 [label="mse = 0.0\nsamples = 1\nvalue = 11.805", fillcolor="#f2bf9b"] ;
347 -> 349 ;
350 [label="mse = 0.0\nsamples = 1\nvalue = 11.824", fillcolor="#f2bf9a"] ;
346 -> 350 ;
351 [label="MSZoning_RLXLotArea <= 8231.0\nmse = 0.0\nsamples = 3\nvalue = 11.858", fillcolor="#f1bd97"] ;
343 -> 351 ;
352 [label="OverallQualXGarageArea <= 1656.0\nmse = 0.0\nsamples = 2\nvalue = 11.867", fillcolor="#f1bd97"] ;
351 -> 352 ;
353 [label="mse = 0.0\nsamples = 1\nvalue = 11.871", fillcolor="#f1bc96"] ;
352 -> 353 ;
354 [label="mse = 0.0\nsamples = 1\nvalue = 11.864", fillcolor="#f1bd97"] ;
352 -> 354 ;
355 [label="mse = -0.0\nsamples = 1\nvalue = 11.839", fillcolor="#f2be99"] ;
351 -> 355 ;
356 [label="ExterQualXTotalBsmtSF <= 2116.0\nmse = 0.004\nsamples = 16\nvalue = 11.814", fillcolor="#f2bf9a"] ;
262 -> 356 ;
357 [label="BsmtQualXYearRemodAdd <= 6018.0\nmse = 0.001\nsamples = 13\nvalue = 11.789", fillcolor="#f2c09c"] ;
356 -> 357 ;
358 [label="BsmtFinType1XBsmtFullBath <= 4.0\nmse = 0.0\nsamples = 8\nvalue = 11.814", fillcolor="#f2bf9a"] ;
357 -> 358 ;
359 [label="YearBuiltXFullBath <= 1959.0\nmse = 0.0\nsamples = 5\nvalue = 11.826", fillcolor="#f2be9a"] ;
358 -> 359 ;
360 [label="ExterQualXYearRemodAdd <= 3942.0\nmse = 0.0\nsamples = 2\nvalue = 11.844", fillcolor="#f2be98"] ;
359 -> 360 ;
361 [label="mse = 0.0\nsamples = 1\nvalue = 11.845", fillcolor="#f1be98"] ;
360 -> 361 ;
362 [label="mse = 0.0\nsamples = 1\nvalue = 11.842", fillcolor="#f2be98"] ;
360 -> 362 ;
363 [label="Exterior2nd_VinylSdXYearRemodAdd <= 983.5\nmse = 0.0\nsamples = 3\nvalue = 11.814", fillcolor="#f2bf9a"] ;
359 -> 363 ;
364 [label="mse = 0.0\nsamples = 2\nvalue = 11.813", fillcolor="#f2bf9b"] ;
363 -> 364 ;
365 [label="mse = 0.0\nsamples = 1\nvalue = 11.817", fillcolor="#f2bf9a"] ;
363 -> 365 ;
366 [label="OverallQualXGarageYrBlt <= 10751.5\nmse = 0.0\nsamples = 3\nvalue = 11.794", fillcolor="#f2c09c"] ;
358 -> 366 ;
367 [label="BsmtQualXYearBuilt <= 5887.5\nmse = 0.0\nsamples = 2\nvalue = 11.796", fillcolor="#f2c09c"] ;
366 -> 367 ;
368 [label="mse = 0.0\nsamples = 1\nvalue = 11.794", fillcolor="#f2c09c"] ;
367 -> 368 ;
369 [label="mse = 0.0\nsamples = 1\nvalue = 11.798", fillcolor="#f2c09c"] ;
367 -> 369 ;
370 [label="mse = 0.0\nsamples = 1\nvalue = 11.791", fillcolor="#f2c09c"] ;
366 -> 370 ;
371 [label="PavedDriveXYearBuilt <= 3953.0\nmse = 0.0\nsamples = 5\nvalue = 11.749", fillcolor="#f2c29f"] ;
357 -> 371 ;
372 [label="OverallQualXTotalBsmtSF <= 5027.5\nmse = 0.0\nsamples = 3\nvalue = 11.757", fillcolor="#f2c29f"] ;
371 -> 372 ;
373 [label="mse = 0.0\nsamples = 1\nvalue = 11.764", fillcolor="#f2c19e"] ;
372 -> 373 ;
374 [label="YearBuiltXGarageCars <= 981.0\nmse = 0.0\nsamples = 2\nvalue = 11.754", fillcolor="#f2c29f"] ;
372 -> 374 ;
375 [label="mse = 0.0\nsamples = 1\nvalue = 11.756", fillcolor="#f2c29f"] ;
374 -> 375 ;
376 [label="mse = 0.0\nsamples = 1\nvalue = 11.752", fillcolor="#f2c29f"] ;
374 -> 376 ;
377 [label="GarageCars <= 0.5\nmse = 0.0\nsamples = 2\nvalue = 11.736", fillcolor="#f3c3a0"] ;
371 -> 377 ;
378 [label="mse = 0.0\nsamples = 1\nvalue = 11.728", fillcolor="#f3c3a1"] ;
377 -> 378 ;
379 [label="mse = 0.0\nsamples = 1\nvalue = 11.744", fillcolor="#f2c2a0"] ;
377 -> 379 ;
380 [label="BsmtQualXKitchenQual <= 8.5\nmse = 0.0\nsamples = 3\nvalue = 11.92", fillcolor="#f1ba93"] ;
356 -> 380 ;
381 [label="YearRemodAdd <= 1992.0\nmse = 0.0\nsamples = 2\nvalue = 11.908", fillcolor="#f1bb93"] ;
380 -> 381 ;
382 [label="mse = 0.0\nsamples = 1\nvalue = 11.918", fillcolor="#f1ba93"] ;
381 -> 382 ;
383 [label="mse = 0.0\nsamples = 1\nvalue = 11.898", fillcolor="#f1bb94"] ;
381 -> 383 ;
384 [label="mse = -0.0\nsamples = 1\nvalue = 11.945", fillcolor="#f1b991"] ;
380 -> 384 ;
385 [label="HeatingQCXYearRemodAdd <= 6863.5\nmse = 0.135\nsamples = 2\nvalue = 11.408", fillcolor="#f6d2b9"] ;
261 -> 385 ;
386 [label="mse = 0.0\nsamples = 1\nvalue = 11.041", fillcolor="#f9e4d4"] ;
385 -> 386 ;
387 [label="mse = 0.0\nsamples = 1\nvalue = 11.775", fillcolor="#f2c19d"] ;
385 -> 387 ;
388 [label="BsmtFinType1XBsmtFinSF1 <= 1732.0\nmse = 0.023\nsamples = 68\nvalue = 11.803", fillcolor="#f2c09b"] ;
196 -> 388 ;
389 [label="YearBuilt <= 1985.5\nmse = 0.022\nsamples = 43\nvalue = 11.747", fillcolor="#f2c29f"] ;
388 -> 389 ;
390 [label="HeatingQCXYearRemodAdd <= 3909.0\nmse = 0.016\nsamples = 41\nvalue = 11.764", fillcolor="#f2c19e"] ;
389 -> 390 ;
391 [label="BsmtUnfSF <= 808.0\nmse = 0.016\nsamples = 9\nvalue = 11.647", fillcolor="#f3c7a7"] ;
390 -> 391 ;
392 [label="GrLivAreaXGarageCars <= 1432.5\nmse = 0.006\nsamples = 7\nvalue = 11.701", fillcolor="#f3c4a3"] ;
391 -> 392 ;
393 [label="TotalBsmtSF <= 774.0\nmse = 0.002\nsamples = 5\nvalue = 11.66", fillcolor="#f3c6a6"] ;
392 -> 393 ;
394 [label="mse = 0.0\nsamples = 1\nvalue = 11.562", fillcolor="#f4cbad"] ;
393 -> 394 ;
395 [label="Fireplaces <= 0.5\nmse = 0.0\nsamples = 4\nvalue = 11.685", fillcolor="#f3c5a4"] ;
393 -> 395 ;
396 [label="BsmtFinType1XBsmtFinSF1 <= 1475.0\nmse = 0.0\nsamples = 2\nvalue = 11.681", fillcolor="#f3c5a4"] ;
395 -> 396 ;
397 [label="mse = 0.0\nsamples = 1\nvalue = 11.683", fillcolor="#f3c5a4"] ;
396 -> 397 ;
398 [label="mse = 0.0\nsamples = 1\nvalue = 11.678", fillcolor="#f3c5a5"] ;
396 -> 398 ;
399 [label="BsmtQualXGarageYrBlt <= 5827.5\nmse = 0.0\nsamples = 2\nvalue = 11.69", fillcolor="#f3c5a4"] ;
395 -> 399 ;
400 [label="mse = 0.0\nsamples = 1\nvalue = 11.691", fillcolor="#f3c5a4"] ;
399 -> 400 ;
401 [label="mse = 0.0\nsamples = 1\nvalue = 11.689", fillcolor="#f3c5a4"] ;
399 -> 401 ;
402 [label="HouseStyle_2StoryXGrLivArea <= 823.5\nmse = 0.002\nsamples = 2\nvalue = 11.803", fillcolor="#f2c09b"] ;
392 -> 402 ;
403 [label="mse = 0.0\nsamples = 1\nvalue = 11.846", fillcolor="#f1be98"] ;
402 -> 403 ;
404 [label="mse = -0.0\nsamples = 1\nvalue = 11.76", fillcolor="#f2c29e"] ;
402 -> 404 ;
405 [label="FireplaceQuXFireplaces <= 3.5\nmse = 0.001\nsamples = 2\nvalue = 11.456", fillcolor="#f5d0b5"] ;
391 -> 405 ;
406 [label="mse = 0.0\nsamples = 1\nvalue = 11.424", fillcolor="#f6d1b7"] ;
405 -> 406 ;
407 [label="mse = 0.0\nsamples = 1\nvalue = 11.488", fillcolor="#f5ceb3"] ;
405 -> 407 ;
408 [label="GrLivAreaXFireplaces <= 1305.5\nmse = 0.012\nsamples = 32\nvalue = 11.797", fillcolor="#f2c09c"] ;
390 -> 408 ;
409 [label="BsmtFinSF1XBsmtFullBath <= 225.5\nmse = 0.009\nsamples = 25\nvalue = 11.765", fillcolor="#f2c19e"] ;
408 -> 409 ;
410 [label="OverallQualX1stFlrSF <= 3798.0\nmse = 0.006\nsamples = 22\nvalue = 11.786", fillcolor="#f2c09d"] ;
409 -> 410 ;
411 [label="HeatingQCXYearBuilt <= 4890.0\nmse = 0.002\nsamples = 2\nvalue = 11.647", fillcolor="#f3c7a7"] ;
410 -> 411 ;
412 [label="mse = 0.0\nsamples = 1\nvalue = 11.695", fillcolor="#f3c5a3"] ;
411 -> 412 ;
413 [label="mse = 0.0\nsamples = 1\nvalue = 11.599", fillcolor="#f4c9aa"] ;
411 -> 413 ;
414 [label="Functional_Maj2 <= 0.5\nmse = 0.004\nsamples = 20\nvalue = 11.799", fillcolor="#f2c09c"] ;
410 -> 414 ;
415 [label="Exterior2nd_VinylSdXYearBuilt <= 1918.5\nmse = 0.003\nsamples = 19\nvalue = 11.807", fillcolor="#f2bf9b"] ;
414 -> 415 ;
416 [label="GarageYrBlt <= 1991.5\nmse = 0.002\nsamples = 17\nvalue = 11.819", fillcolor="#f2bf9a"] ;
415 -> 416 ;
417 [label="1stFlrSFXGrLivArea <= 1106532.0\nmse = 0.001\nsamples = 16\nvalue = 11.811", fillcolor="#f2bf9b"] ;
416 -> 417 ;
418 [label="2ndFlrSFXTotRmsAbvGrd <= 2967.0\nmse = 0.0\nsamples = 4\nvalue = 11.769", fillcolor="#f2c19e"] ;
417 -> 418 ;
419 [label="1stFlrSF <= 989.0\nmse = 0.0\nsamples = 3\nvalue = 11.779", fillcolor="#f2c19d"] ;
418 -> 419 ;
420 [label="OverallQualX1stFlrSF <= 4240.0\nmse = 0.0\nsamples = 2\nvalue = 11.785", fillcolor="#f2c09d"] ;
419 -> 420 ;
421 [label="mse = 0.0\nsamples = 1\nvalue = 11.779", fillcolor="#f2c19d"] ;
420 -> 421 ;
422 [label="mse = 0.0\nsamples = 1\nvalue = 11.791", fillcolor="#f2c09c"] ;
420 -> 422 ;
423 [label="mse = -0.0\nsamples = 1\nvalue = 11.767", fillcolor="#f2c19e"] ;
419 -> 423 ;
424 [label="mse = 0.0\nsamples = 1\nvalue = 11.74", fillcolor="#f3c3a0"] ;
418 -> 424 ;
425 [label="BsmtQualXTotalBsmtSF <= 2922.0\nmse = 0.0\nsamples = 12\nvalue = 11.825", fillcolor="#f2be9a"] ;
417 -> 425 ;
426 [label="1stFlrSF <= 1016.5\nmse = 0.0\nsamples = 6\nvalue = 11.811", fillcolor="#f2bf9b"] ;
425 -> 426 ;
427 [label="TotRmsAbvGrd <= 7.5\nmse = 0.0\nsamples = 4\nvalue = 11.816", fillcolor="#f2bf9a"] ;
426 -> 427 ;
428 [label="mse = 0.0\nsamples = 2\nvalue = 11.813", fillcolor="#f2bf9b"] ;
427 -> 428 ;
429 [label="GrLivAreaXTotRmsAbvGrd <= 13294.0\nmse = 0.0\nsamples = 2\nvalue = 11.818", fillcolor="#f2bf9a"] ;
427 -> 429 ;
430 [label="mse = 0.0\nsamples = 1\nvalue = 11.817", fillcolor="#f2bf9a"] ;
429 -> 430 ;
431 [label="mse = -0.0\nsamples = 1\nvalue = 11.82", fillcolor="#f2bf9a"] ;
429 -> 431 ;
432 [label="PavedDriveXYearBuilt <= 3917.0\nmse = 0.0\nsamples = 2\nvalue = 11.802", fillcolor="#f2c09b"] ;
426 -> 432 ;
433 [label="mse = 0.0\nsamples = 1\nvalue = 11.798", fillcolor="#f2c09c"] ;
432 -> 433 ;
434 [label="mse = 0.0\nsamples = 1\nvalue = 11.806", fillcolor="#f2bf9b"] ;
432 -> 434 ;
435 [label="Exterior1st_HdBoard <= 0.5\nmse = 0.0\nsamples = 6\nvalue = 11.84", fillcolor="#f2be99"] ;
425 -> 435 ;
436 [label="BsmtQualXTotalBsmtSF <= 3160.5\nmse = 0.0\nsamples = 4\nvalue = 11.851", fillcolor="#f1bd98"] ;
435 -> 436 ;
437 [label="MSSubClass_20 <= 0.5\nmse = 0.0\nsamples = 2\nvalue = 11.842", fillcolor="#f2be98"] ;
436 -> 437 ;
438 [label="mse = 0.0\nsamples = 1\nvalue = 11.841", fillcolor="#f2be98"] ;
437 -> 438 ;
439 [label="mse = 0.0\nsamples = 1\nvalue = 11.842", fillcolor="#f2be98"] ;
437 -> 439 ;
440 [label="BsmtUnfSF <= 900.0\nmse = 0.0\nsamples = 2\nvalue = 11.86", fillcolor="#f1bd97"] ;
436 -> 440 ;
441 [label="mse = 0.0\nsamples = 1\nvalue = 11.864", fillcolor="#f1bd97"] ;
440 -> 441 ;
442 [label="mse = 0.0\nsamples = 1\nvalue = 11.857", fillcolor="#f1bd97"] ;
440 -> 442 ;
443 [label="ExterQualXYearRemodAdd <= 3964.0\nmse = 0.0\nsamples = 2\nvalue = 11.817", fillcolor="#f2bf9a"] ;
435 -> 443 ;
444 [label="mse = 0.0\nsamples = 1\nvalue = 11.824", fillcolor="#f2bf9a"] ;
443 -> 444 ;
445 [label="mse = 0.0\nsamples = 1\nvalue = 11.809", fillcolor="#f2bf9b"] ;
443 -> 445 ;
446 [label="mse = -0.0\nsamples = 1\nvalue = 11.942", fillcolor="#f1b991"] ;
416 -> 446 ;
447 [label="YearBuiltXGarageCars <= 962.5\nmse = 0.001\nsamples = 2\nvalue = 11.707", fillcolor="#f3c4a2"] ;
415 -> 447 ;
448 [label="mse = 0.0\nsamples = 1\nvalue = 11.678", fillcolor="#f3c5a5"] ;
447 -> 448 ;
449 [label="mse = 0.0\nsamples = 1\nvalue = 11.736", fillcolor="#f3c3a0"] ;
447 -> 449 ;
450 [label="mse = -0.0\nsamples = 1\nvalue = 11.653", fillcolor="#f3c7a6"] ;
414 -> 450 ;
451 [label="YearBuiltXYearRemodAdd <= 3728400.0\nmse = 0.003\nsamples = 3\nvalue = 11.613", fillcolor="#f4c9a9"] ;
409 -> 451 ;
452 [label="mse = 0.0\nsamples = 1\nvalue = 11.687", fillcolor="#f3c5a4"] ;
451 -> 452 ;
453 [label="1stFlrSFXGarageCars <= 474.5\nmse = 0.0\nsamples = 2\nvalue = 11.575", fillcolor="#f4caac"] ;
451 -> 453 ;
454 [label="mse = 0.0\nsamples = 1\nvalue = 11.59", fillcolor="#f4caab"] ;
453 -> 454 ;
455 [label="mse = 0.0\nsamples = 1\nvalue = 11.561", fillcolor="#f4cbad"] ;
453 -> 455 ;
456 [label="BsmtQualXYearRemodAdd <= 5994.0\nmse = 0.005\nsamples = 7\nvalue = 11.912", fillcolor="#f1ba93"] ;
408 -> 456 ;
457 [label="MSZoning_RLXLotArea <= 9540.0\nmse = 0.002\nsamples = 5\nvalue = 11.951", fillcolor="#f0b990"] ;
456 -> 457 ;
458 [label="YrSold <= 2008.0\nmse = 0.001\nsamples = 3\nvalue = 11.919", fillcolor="#f1ba93"] ;
457 -> 458 ;
459 [label="GrLivArea <= 1610.0\nmse = 0.0\nsamples = 2\nvalue = 11.903", fillcolor="#f1bb94"] ;
458 -> 459 ;
460 [label="mse = 0.0\nsamples = 1\nvalue = 11.912", fillcolor="#f1ba93"] ;
459 -> 460 ;
461 [label="mse = 0.0\nsamples = 1\nvalue = 11.895", fillcolor="#f1bb94"] ;
459 -> 461 ;
462 [label="mse = 0.0\nsamples = 1\nvalue = 11.951", fillcolor="#f0b990"] ;
458 -> 462 ;
463 [label="BsmtFinSF1 <= 214.0\nmse = 0.0\nsamples = 2\nvalue = 11.998", fillcolor="#f0b68d"] ;
457 -> 463 ;
464 [label="mse = 0.0\nsamples = 1\nvalue = 12.014", fillcolor="#f0b68c"] ;
463 -> 464 ;
465 [label="mse = -0.0\nsamples = 1\nvalue = 11.983", fillcolor="#f0b78e"] ;
463 -> 465 ;
466 [label="OverallQualXTotalBsmtSF <= 4740.0\nmse = 0.001\nsamples = 2\nvalue = 11.816", fillcolor="#f2bf9a"] ;
456 -> 466 ;
467 [label="mse = 0.0\nsamples = 1\nvalue = 11.783", fillcolor="#f2c09d"] ;
466 -> 467 ;
468 [label="mse = 0.0\nsamples = 1\nvalue = 11.849", fillcolor="#f1bd98"] ;
466 -> 468 ;
469 [label="BsmtFinType1 <= 2.5\nmse = 0.003\nsamples = 2\nvalue = 11.395", fillcolor="#f6d3ba"] ;
389 -> 469 ;
470 [label="mse = 0.0\nsamples = 1\nvalue = 11.345", fillcolor="#f6d5bd"] ;
469 -> 470 ;
471 [label="mse = 0.0\nsamples = 1\nvalue = 11.446", fillcolor="#f5d0b6"] ;
469 -> 471 ;
472 [label="OverallQualXGrLivArea <= 7951.0\nmse = 0.011\nsamples = 25\nvalue = 11.9", fillcolor="#f1bb94"] ;
388 -> 472 ;
473 [label="BsmtQualXYearRemodAdd <= 5971.5\nmse = 0.007\nsamples = 20\nvalue = 11.867", fillcolor="#f1bd97"] ;
472 -> 473 ;
474 [label="BsmtFinSF1XTotalBsmtSF <= 694047.0\nmse = 0.002\nsamples = 13\nvalue = 11.824", fillcolor="#f2bf9a"] ;
473 -> 474 ;
475 [label="GrLivAreaXGarageArea <= 300080.0\nmse = 0.001\nsamples = 11\nvalue = 11.839", fillcolor="#f2be99"] ;
474 -> 475 ;
476 [label="FullBathXGarageYrBlt <= 1976.0\nmse = 0.001\nsamples = 5\nvalue = 11.808", fillcolor="#f2bf9b"] ;
475 -> 476 ;
477 [label="TotalBsmtSFXGarageArea <= 284616.0\nmse = 0.0\nsamples = 4\nvalue = 11.818", fillcolor="#f2bf9a"] ;
476 -> 477 ;
478 [label="mse = 0.0\nsamples = 2\nvalue = 11.828", fillcolor="#f2be99"] ;
477 -> 478 ;
479 [label="Exterior2nd_Plywood <= 0.5\nmse = 0.0\nsamples = 2\nvalue = 11.807", fillcolor="#f2bf9b"] ;
477 -> 479 ;
480 [label="mse = 0.0\nsamples = 1\nvalue = 11.813", fillcolor="#f2bf9b"] ;
479 -> 480 ;
481 [label="mse = 0.0\nsamples = 1\nvalue = 11.802", fillcolor="#f2c09b"] ;
479 -> 481 ;
482 [label="mse = 0.0\nsamples = 1\nvalue = 11.767", fillcolor="#f2c19e"] ;
476 -> 482 ;
483 [label="GarageFinishXGarageArea <= 301.5\nmse = 0.001\nsamples = 6\nvalue = 11.865", fillcolor="#f1bd97"] ;
475 -> 483 ;
484 [label="YearRemodAddXGarageCars <= 1954.0\nmse = 0.0\nsamples = 2\nvalue = 11.835", fillcolor="#f2be99"] ;
483 -> 484 ;
485 [label="mse = 0.0\nsamples = 1\nvalue = 11.849", fillcolor="#f1bd98"] ;
484 -> 485 ;
486 [label="mse = -0.0\nsamples = 1\nvalue = 11.82", fillcolor="#f2bf9a"] ;
484 -> 486 ;
487 [label="GarageFinishXGarageType_Attchd <= 1.5\nmse = 0.0\nsamples = 4\nvalue = 11.879", fillcolor="#f1bc96"] ;
483 -> 487 ;
488 [label="mse = 0.0\nsamples = 3\nvalue = 11.878", fillcolor="#f1bc96"] ;
487 -> 488 ;
489 [label="mse = -0.0\nsamples = 1\nvalue = 11.884", fillcolor="#f1bc95"] ;
487 -> 489 ;
490 [label="ExterQualXGarageYrBlt <= 3919.0\nmse = 0.0\nsamples = 2\nvalue = 11.742", fillcolor="#f2c2a0"] ;
474 -> 490 ;
491 [label="mse = 0.0\nsamples = 1\nvalue = 11.732", fillcolor="#f3c3a1"] ;
490 -> 491 ;
492 [label="mse = 0.0\nsamples = 1\nvalue = 11.752", fillcolor="#f2c29f"] ;
490 -> 492 ;
493 [label="LotAreaXGrLivArea <= 12597788.0\nmse = 0.006\nsamples = 7\nvalue = 11.947", fillcolor="#f1b991"] ;
473 -> 493 ;
494 [label="BsmtQualXGarageYrBlt <= 5878.5\nmse = 0.001\nsamples = 5\nvalue = 11.904", fillcolor="#f1bb94"] ;
493 -> 494 ;
495 [label="TotalBsmtSF <= 1054.5\nmse = 0.0\nsamples = 2\nvalue = 11.867", fillcolor="#f1bd97"] ;
494 -> 495 ;
496 [label="mse = 0.0\nsamples = 1\nvalue = 11.888", fillcolor="#f1bc95"] ;
495 -> 496 ;
497 [label="mse = -0.0\nsamples = 1\nvalue = 11.845", fillcolor="#f1be98"] ;
495 -> 497 ;
498 [label="GarageYrBltXGarageCars <= 980.0\nmse = 0.0\nsamples = 3\nvalue = 11.928", fillcolor="#f1ba92"] ;
494 -> 498 ;
499 [label="mse = 0.0\nsamples = 1\nvalue = 11.918", fillcolor="#f1ba93"] ;
498 -> 499 ;
500 [label="LotConfig_Inside <= 0.5\nmse = 0.0\nsamples = 2\nvalue = 11.933", fillcolor="#f1b992"] ;
498 -> 500 ;
501 [label="mse = 0.0\nsamples = 1\nvalue = 11.928", fillcolor="#f1ba92"] ;
500 -> 501 ;
502 [label="mse = 0.0\nsamples = 1\nvalue = 11.938", fillcolor="#f1b991"] ;
500 -> 502 ;
503 [label="HeatingQC <= 3.0\nmse = 0.002\nsamples = 2\nvalue = 12.054", fillcolor="#efb489"] ;
493 -> 503 ;
504 [label="mse = 0.0\nsamples = 1\nvalue = 12.095", fillcolor="#efb286"] ;
503 -> 504 ;
505 [label="mse = 0.0\nsamples = 1\nvalue = 12.013", fillcolor="#f0b68c"] ;
503 -> 505 ;
506 [label="BsmtQualXGarageYrBlt <= 5896.5\nmse = 0.002\nsamples = 5\nvalue = 12.035", fillcolor="#f0b58a"] ;
472 -> 506 ;
507 [label="GarageType_AttchdXYearBuilt <= 1952.0\nmse = 0.0\nsamples = 3\nvalue = 12.07", fillcolor="#efb387"] ;
506 -> 507 ;
508 [label="OverallQualXGarageYrBlt <= 11703.0\nmse = 0.0\nsamples = 2\nvalue = 12.085", fillcolor="#efb286"] ;
507 -> 508 ;
509 [label="mse = 0.0\nsamples = 1\nvalue = 12.087", fillcolor="#efb286"] ;
508 -> 509 ;
510 [label="mse = 0.0\nsamples = 1\nvalue = 12.084", fillcolor="#efb286"] ;
508 -> 510 ;
511 [label="mse = 0.0\nsamples = 1\nvalue = 12.041", fillcolor="#f0b48a"] ;
507 -> 511 ;
512 [label="BsmtFinSF1 <= 374.5\nmse = 0.0\nsamples = 2\nvalue = 11.982", fillcolor="#f0b78e"] ;
506 -> 512 ;
513 [label="mse = 0.0\nsamples = 1\nvalue = 11.97", fillcolor="#f0b88f"] ;
512 -> 513 ;
514 [label="mse = 0.0\nsamples = 1\nvalue = 11.994", fillcolor="#f0b78d"] ;
512 -> 514 ;
515 [label="OverallQualXGrLivArea <= 7180.5\nmse = 0.037\nsamples = 328\nvalue = 11.928", fillcolor="#f1ba92"] ;
1 -> 515 ;
516 [label="BsmtQualXYearBuilt <= 5833.5\nmse = 0.032\nsamples = 156\nvalue = 11.813", fillcolor="#f2bf9b"] ;
515 -> 516 ;
517 [label="OverallQualXGrLivArea <= 5118.5\nmse = 0.031\nsamples = 25\nvalue = 11.572", fillcolor="#f4caac"] ;
516 -> 517 ;
518 [label="OverallQualXGrLivArea <= 3543.0\nmse = 0.01\nsamples = 12\nvalue = 11.442", fillcolor="#f5d1b6"] ;
517 -> 518 ;
519 [label="Exterior1st_VinylSdXYearBuilt <= 970.0\nmse = 0.0\nsamples = 3\nvalue = 11.304", fillcolor="#f7d7c0"] ;
518 -> 519 ;
520 [label="Foundation_PConcXYearBuilt <= 963.0\nmse = 0.0\nsamples = 2\nvalue = 11.295", fillcolor="#f7d8c1"] ;
519 -> 520 ;
521 [label="mse = 0.0\nsamples = 1\nvalue = 11.302", fillcolor="#f7d7c0"] ;
520 -> 521 ;
522 [label="mse = 0.0\nsamples = 1\nvalue = 11.289", fillcolor="#f7d8c1"] ;
520 -> 522 ;
523 [label="mse = -0.0\nsamples = 1\nvalue = 11.321", fillcolor="#f7d6bf"] ;
519 -> 523 ;
524 [label="LotArea <= 6120.0\nmse = 0.005\nsamples = 9\nvalue = 11.489", fillcolor="#f5ceb3"] ;
518 -> 524 ;
525 [label="KitchenQualXTotalBsmtSF <= 1843.0\nmse = 0.001\nsamples = 3\nvalue = 11.405", fillcolor="#f6d2b9"] ;
524 -> 525 ;
526 [label="BsmtQualXYearBuilt <= 4848.5\nmse = 0.0\nsamples = 2\nvalue = 11.388", fillcolor="#f6d3ba"] ;
525 -> 526 ;
527 [label="mse = 0.0\nsamples = 1\nvalue = 11.402", fillcolor="#f6d3b9"] ;
526 -> 527 ;
528 [label="mse = 0.0\nsamples = 1\nvalue = 11.374", fillcolor="#f6d4bb"] ;
526 -> 528 ;
529 [label="mse = -0.0\nsamples = 1\nvalue = 11.44", fillcolor="#f5d1b6"] ;
525 -> 529 ;
530 [label="LandContour_Lvl <= 0.5\nmse = 0.001\nsamples = 6\nvalue = 11.53", fillcolor="#f5ccb0"] ;
524 -> 530 ;
531 [label="mse = 0.0\nsamples = 1\nvalue = 11.462", fillcolor="#f5d0b5"] ;
530 -> 531 ;
532 [label="TotalBsmtSF <= 726.0\nmse = 0.0\nsamples = 5\nvalue = 11.544", fillcolor="#f4ccaf"] ;
530 -> 532 ;
533 [label="GarageFinishXFoundation_PConc <= 0.5\nmse = 0.0\nsamples = 2\nvalue = 11.566", fillcolor="#f4cbad"] ;
532 -> 533 ;
534 [label="mse = 0.0\nsamples = 1\nvalue = 11.57", fillcolor="#f4cbad"] ;
533 -> 534 ;
535 [label="mse = -0.0\nsamples = 1\nvalue = 11.562", fillcolor="#f4cbad"] ;
533 -> 535 ;
536 [label="ExterQual <= 2.5\nmse = 0.0\nsamples = 3\nvalue = 11.529", fillcolor="#f5ccb0"] ;
532 -> 536 ;
537 [label="KitchenQualXTotalBsmtSF <= 1616.0\nmse = 0.0\nsamples = 2\nvalue = 11.538", fillcolor="#f4ccaf"] ;
536 -> 537 ;
538 [label="mse = 0.0\nsamples = 1\nvalue = 11.542", fillcolor="#f4ccaf"] ;
537 -> 538 ;
539 [label="mse = -0.0\nsamples = 1\nvalue = 11.533", fillcolor="#f5ccaf"] ;
537 -> 539 ;
540 [label="mse = 0.0\nsamples = 1\nvalue = 11.513", fillcolor="#f5cdb1"] ;
536 -> 540 ;
541 [label="KitchenQualXGarageYrBlt <= 3847.0\nmse = 0.021\nsamples = 13\nvalue = 11.692", fillcolor="#f3c5a4"] ;
517 -> 541 ;
542 [label="2ndFlrSFXTotRmsAbvGrd <= 2716.0\nmse = 0.005\nsamples = 2\nvalue = 11.443", fillcolor="#f5d1b6"] ;
541 -> 542 ;
543 [label="mse = 0.0\nsamples = 1\nvalue = 11.513", fillcolor="#f5cdb1"] ;
542 -> 543 ;
544 [label="mse = -0.0\nsamples = 1\nvalue = 11.374", fillcolor="#f6d4bb"] ;
542 -> 544 ;
545 [label="HeatingQCXYearBuilt <= 5752.5\nmse = 0.011\nsamples = 11\nvalue = 11.737", fillcolor="#f3c3a0"] ;
541 -> 545 ;
546 [label="FireplaceQuXOverallQual <= 10.0\nmse = 0.005\nsamples = 6\nvalue = 11.819", fillcolor="#f2bf9a"] ;
545 -> 546 ;
547 [label="GrLivAreaXFullBath <= 1246.0\nmse = 0.001\nsamples = 4\nvalue = 11.773", fillcolor="#f2c19e"] ;
546 -> 547 ;
548 [label="mse = 0.0\nsamples = 1\nvalue = 11.812", fillcolor="#f2bf9b"] ;
547 -> 548 ;
549 [label="HeatingQCXKitchenQual <= 5.0\nmse = 0.0\nsamples = 3\nvalue = 11.76", fillcolor="#f2c29e"] ;
547 -> 549 ;
550 [label="BsmtFinType2 <= 3.0\nmse = 0.0\nsamples = 2\nvalue = 11.769", fillcolor="#f2c19e"] ;
549 -> 550 ;
551 [label="mse = 0.0\nsamples = 1\nvalue = 11.764", fillcolor="#f2c19e"] ;
550 -> 551 ;
552 [label="mse = 0.0\nsamples = 1\nvalue = 11.775", fillcolor="#f2c19d"] ;
550 -> 552 ;
553 [label="mse = -0.0\nsamples = 1\nvalue = 11.74", fillcolor="#f3c3a0"] ;
549 -> 553 ;
554 [label="GarageQualXGarageCars <= 7.5\nmse = 0.001\nsamples = 2\nvalue = 11.911", fillcolor="#f1ba93"] ;
546 -> 554 ;
555 [label="mse = 0.0\nsamples = 1\nvalue = 11.878", fillcolor="#f1bc96"] ;
554 -> 555 ;
556 [label="mse = 0.0\nsamples = 1\nvalue = 11.944", fillcolor="#f1b991"] ;
554 -> 556 ;
557 [label="MoSold <= 6.5\nmse = 0.001\nsamples = 5\nvalue = 11.639", fillcolor="#f4c7a7"] ;
545 -> 557 ;
558 [label="GarageFinishXGarageYrBlt <= 1948.5\nmse = 0.0\nsamples = 2\nvalue = 11.674", fillcolor="#f3c6a5"] ;
557 -> 558 ;
559 [label="mse = 0.0\nsamples = 1\nvalue = 11.653", fillcolor="#f3c7a6"] ;
558 -> 559 ;
560 [label="mse = -0.0\nsamples = 1\nvalue = 11.695", fillcolor="#f3c5a3"] ;
558 -> 560 ;
561 [label="YearRemodAddXGarageYrBlt <= 4019024.5\nmse = 0.0\nsamples = 3\nvalue = 11.616", fillcolor="#f4c8a9"] ;
557 -> 561 ;
562 [label="Fireplaces <= 0.5\nmse = 0.0\nsamples = 2\nvalue = 11.611", fillcolor="#f4c9aa"] ;
561 -> 562 ;
563 [label="mse = 0.0\nsamples = 1\nvalue = 11.608", fillcolor="#f4c9aa"] ;
562 -> 563 ;
564 [label="mse = 0.0\nsamples = 1\nvalue = 11.613", fillcolor="#f4c9a9"] ;
562 -> 564 ;
565 [label="mse = -0.0\nsamples = 1\nvalue = 11.626", fillcolor="#f4c8a8"] ;
561 -> 565 ;
566 [label="OverallCond <= 3.5\nmse = 0.019\nsamples = 131\nvalue = 11.859", fillcolor="#f1bd97"] ;
516 -> 566 ;
567 [label="FullBathXGarageYrBlt <= 1959.5\nmse = 0.062\nsamples = 2\nvalue = 11.25", fillcolor="#f7dac4"] ;
566 -> 567 ;
568 [label="mse = 0.0\nsamples = 1\nvalue = 11.002", fillcolor="#fae5d7"] ;
567 -> 568 ;
569 [label="mse = -0.0\nsamples = 1\nvalue = 11.499", fillcolor="#f5ceb2"] ;
567 -> 569 ;
570 [label="OverallQualX1stFlrSF <= 4413.0\nmse = 0.013\nsamples = 129\nvalue = 11.869", fillcolor="#f1bc96"] ;
566 -> 570 ;
571 [label="LotAreaXGrLivArea <= 12372670.0\nmse = 0.006\nsamples = 23\nvalue = 11.731", fillcolor="#f3c3a1"] ;
570 -> 571 ;
572 [label="BsmtFinSF1XBsmtFullBath <= 514.0\nmse = 0.004\nsamples = 19\nvalue = 11.707", fillcolor="#f3c4a2"] ;
571 -> 572 ;
573 [label="LotFrontageXLotArea <= 603310.0\nmse = 0.002\nsamples = 15\nvalue = 11.684", fillcolor="#f3c5a4"] ;
572 -> 573 ;
574 [label="OverallQualX1stFlrSF <= 4294.0\nmse = 0.001\nsamples = 11\nvalue = 11.707", fillcolor="#f3c4a2"] ;
573 -> 574 ;
575 [label="YearRemodAdd <= 1983.0\nmse = 0.0\nsamples = 9\nvalue = 11.721", fillcolor="#f3c3a1"] ;
574 -> 575 ;
576 [label="BsmtQualXTotalBsmtSF <= 2583.0\nmse = 0.0\nsamples = 5\nvalue = 11.706", fillcolor="#f3c4a2"] ;
575 -> 576 ;
577 [label="OverallQualXYearRemodAdd <= 8869.5\nmse = 0.0\nsamples = 2\nvalue = 11.718", fillcolor="#f3c4a2"] ;
576 -> 577 ;
578 [label="mse = 0.0\nsamples = 1\nvalue = 11.72", fillcolor="#f3c3a1"] ;
577 -> 578 ;
579 [label="mse = -0.0\nsamples = 1\nvalue = 11.716", fillcolor="#f3c4a2"] ;
577 -> 579 ;
580 [label="BsmtFinType1XBsmtFinSF1 <= 1698.0\nmse = 0.0\nsamples = 3\nvalue = 11.698", fillcolor="#f3c5a3"] ;
576 -> 580 ;
581 [label="mse = 0.0\nsamples = 1\nvalue = 11.694", fillcolor="#f3c5a3"] ;
580 -> 581 ;
582 [label="mse = 0.0\nsamples = 2\nvalue = 11.699", fillcolor="#f3c4a3"] ;
580 -> 582 ;
583 [label="GarageFinishXGarageType_Attchd <= 0.5\nmse = 0.0\nsamples = 4\nvalue = 11.74", fillcolor="#f3c3a0"] ;
575 -> 583 ;
584 [label="ExterQualXYearRemodAdd <= 4001.0\nmse = 0.0\nsamples = 2\nvalue = 11.728", fillcolor="#f3c3a1"] ;
583 -> 584 ;
585 [label="mse = 0.0\nsamples = 1\nvalue = 11.736", fillcolor="#f3c3a0"] ;
584 -> 585 ;
586 [label="mse = 0.0\nsamples = 1\nvalue = 11.719", fillcolor="#f3c3a1"] ;
584 -> 586 ;
587 [label="BedroomAbvGrXTotRmsAbvGrd <= 13.0\nmse = 0.0\nsamples = 2\nvalue = 11.753", fillcolor="#f2c29f"] ;
583 -> 587 ;
588 [label="mse = 0.0\nsamples = 1\nvalue = 11.76", fillcolor="#f2c29e"] ;
587 -> 588 ;
589 [label="mse = -0.0\nsamples = 1\nvalue = 11.745", fillcolor="#f2c2a0"] ;
587 -> 589 ;
590 [label="YearBuiltXFullBath <= 1963.5\nmse = 0.0\nsamples = 2\nvalue = 11.642", fillcolor="#f3c7a7"] ;
574 -> 590 ;
591 [label="mse = 0.0\nsamples = 1\nvalue = 11.653", fillcolor="#f3c7a6"] ;
590 -> 591 ;
592 [label="mse = -0.0\nsamples = 1\nvalue = 11.631", fillcolor="#f4c8a8"] ;
590 -> 592 ;
593 [label="KitchenQualXYearRemodAdd <= 2931.5\nmse = 0.0\nsamples = 4\nvalue = 11.622", fillcolor="#f4c8a9"] ;
573 -> 593 ;
594 [label="mse = 0.0\nsamples = 1\nvalue = 11.653", fillcolor="#f3c7a6"] ;
593 -> 594 ;
595 [label="LotArea <= 11092.5\nmse = 0.0\nsamples = 3\nvalue = 11.612", fillcolor="#f4c9a9"] ;
593 -> 595 ;
596 [label="mse = 0.0\nsamples = 2\nvalue = 11.608", fillcolor="#f4c9aa"] ;
595 -> 596 ;
597 [label="mse = 0.0\nsamples = 1\nvalue = 11.62", fillcolor="#f4c8a9"] ;
595 -> 597 ;
598 [label="GrLivAreaXTotRmsAbvGrd <= 3552.0\nmse = 0.001\nsamples = 4\nvalue = 11.794", fillcolor="#f2c09c"] ;
572 -> 598 ;
599 [label="mse = 0.0\nsamples = 1\nvalue = 11.835", fillcolor="#f2be99"] ;
598 -> 599 ;
600 [label="MSSubClass_85 <= 0.5\nmse = 0.0\nsamples = 3\nvalue = 11.78", fillcolor="#f2c19d"] ;
598 -> 600 ;
601 [label="YearBuiltXGarageArea <= 1178256.0\nmse = 0.0\nsamples = 2\nvalue = 11.771", fillcolor="#f2c19e"] ;
600 -> 601 ;
602 [label="mse = 0.0\nsamples = 1\nvalue = 11.768", fillcolor="#f2c19e"] ;
601 -> 602 ;
603 [label="mse = 0.0\nsamples = 1\nvalue = 11.775", fillcolor="#f2c19d"] ;
601 -> 603 ;
604 [label="mse = -0.0\nsamples = 1\nvalue = 11.798", fillcolor="#f2c09c"] ;
600 -> 604 ;
605 [label="BsmtExposure <= 2.5\nmse = 0.001\nsamples = 4\nvalue = 11.844", fillcolor="#f2be98"] ;
571 -> 605 ;
606 [label="Exterior2nd_VinylSdXYearRemodAdd <= 1973.0\nmse = 0.0\nsamples = 3\nvalue = 11.861", fillcolor="#f1bd97"] ;
605 -> 606 ;
607 [label="mse = 0.0\nsamples = 2\nvalue = 11.857", fillcolor="#f1bd97"] ;
606 -> 607 ;
608 [label="mse = 0.0\nsamples = 1\nvalue = 11.871", fillcolor="#f1bc96"] ;
606 -> 608 ;
609 [label="mse = 0.0\nsamples = 1\nvalue = 11.792", fillcolor="#f2c09c"] ;
605 -> 609 ;
610 [label="MSZoning_RLXLotArea <= 11559.0\nmse = 0.009\nsamples = 106\nvalue = 11.899", fillcolor="#f1bb94"] ;
570 -> 610 ;
611 [label="KitchenQualXGrLivArea <= 1961.0\nmse = 0.006\nsamples = 82\nvalue = 11.876", fillcolor="#f1bc96"] ;
610 -> 611 ;
612 [label="GrLivAreaXTotRmsAbvGrd <= 4490.0\nmse = 0.003\nsamples = 12\nvalue = 11.798", fillcolor="#f2c09c"] ;
611 -> 612 ;
613 [label="BsmtQualXTotalBsmtSF <= 2769.0\nmse = 0.001\nsamples = 4\nvalue = 11.857", fillcolor="#f1bd97"] ;
612 -> 613 ;
614 [label="mse = 0.0\nsamples = 1\nvalue = 11.918", fillcolor="#f1ba93"] ;
613 -> 614 ;
615 [label="GarageYrBlt <= 1979.5\nmse = 0.0\nsamples = 3\nvalue = 11.837", fillcolor="#f2be99"] ;
613 -> 615 ;
616 [label="mse = 0.0\nsamples = 1\nvalue = 11.82", fillcolor="#f2bf9a"] ;
615 -> 616 ;
617 [label="MSZoning_RLXLotArea <= 3675.0\nmse = 0.0\nsamples = 2\nvalue = 11.846", fillcolor="#f1be98"] ;
615 -> 617 ;
618 [label="mse = 0.0\nsamples = 1\nvalue = 11.849", fillcolor="#f1bd98"] ;
617 -> 618 ;
619 [label="mse = -0.0\nsamples = 1\nvalue = 11.842", fillcolor="#f2be98"] ;
617 -> 619 ;
620 [label="BsmtFinSF1 <= 673.0\nmse = 0.001\nsamples = 8\nvalue = 11.768", fillcolor="#f2c19e"] ;
612 -> 620 ;
621 [label="BsmtUnfSF <= 693.0\nmse = 0.0\nsamples = 5\nvalue = 11.789", fillcolor="#f2c09c"] ;
620 -> 621 ;
622 [label="MasVnrType_None <= 0.5\nmse = 0.0\nsamples = 4\nvalue = 11.796", fillcolor="#f2c09c"] ;
621 -> 622 ;
623 [label="mse = 0.0\nsamples = 1\nvalue = 11.813", fillcolor="#f2bf9b"] ;
622 -> 623 ;
624 [label="YearBuiltXTotalBsmtSF <= 1756724.0\nmse = 0.0\nsamples = 3\nvalue = 11.791", fillcolor="#f2c09c"] ;
622 -> 624 ;
625 [label="mse = 0.0\nsamples = 1\nvalue = 11.783", fillcolor="#f2c09d"] ;
624 -> 625 ;
626 [label="mse = -0.0\nsamples = 2\nvalue = 11.794", fillcolor="#f2c09c"] ;
624 -> 626 ;
627 [label="mse = 0.0\nsamples = 1\nvalue = 11.76", fillcolor="#f2c29e"] ;
621 -> 627 ;
628 [label="1stFlrSF <= 1044.5\nmse = 0.001\nsamples = 3\nvalue = 11.733", fillcolor="#f3c3a0"] ;
620 -> 628 ;
629 [label="YearBuiltXYearRemodAdd <= 3894704.5\nmse = 0.0\nsamples = 2\nvalue = 11.716", fillcolor="#f3c4a2"] ;
628 -> 629 ;
630 [label="mse = 0.0\nsamples = 1\nvalue = 11.72", fillcolor="#f3c3a1"] ;
629 -> 630 ;
631 [label="mse = 0.0\nsamples = 1\nvalue = 11.712", fillcolor="#f3c4a2"] ;
629 -> 631 ;
632 [label="mse = -0.0\nsamples = 1\nvalue = 11.768", fillcolor="#f2c19e"] ;
628 -> 632 ;
633 [label="HeatingQCXGarageYrBlt <= 3927.0\nmse = 0.005\nsamples = 70\nvalue = 11.89", fillcolor="#f1bb95"] ;
611 -> 633 ;
634 [label="GarageFinishXGarageYrBlt <= 1962.5\nmse = 0.003\nsamples = 9\nvalue = 11.82", fillcolor="#f2bf9a"] ;
633 -> 634 ;
635 [label="OverallQualXYearRemodAdd <= 9895.0\nmse = 0.001\nsamples = 5\nvalue = 11.775", fillcolor="#f2c19d"] ;
634 -> 635 ;
636 [label="LotFrontageXLotArea <= 602999.0\nmse = 0.0\nsamples = 4\nvalue = 11.792", fillcolor="#f2c09c"] ;
635 -> 636 ;
637 [label="BsmtQualXYearBuilt <= 5871.0\nmse = 0.0\nsamples = 3\nvalue = 11.801", fillcolor="#f2c09b"] ;
636 -> 637 ;
638 [label="mse = 0.0\nsamples = 1\nvalue = 11.813", fillcolor="#f2bf9b"] ;
637 -> 638 ;
639 [label="mse = -0.0\nsamples = 2\nvalue = 11.794", fillcolor="#f2c09c"] ;
637 -> 639 ;
640 [label="mse = 0.0\nsamples = 1\nvalue = 11.768", fillcolor="#f2c19e"] ;
636 -> 640 ;
641 [label="mse = -0.0\nsamples = 1\nvalue = 11.708", fillcolor="#f3c4a2"] ;
635 -> 641 ;
642 [label="MSZoning_RLXLotArea <= 8788.0\nmse = 0.001\nsamples = 4\nvalue = 11.876", fillcolor="#f1bc96"] ;
634 -> 642 ;
643 [label="common <= 0.5\nmse = 0.0\nsamples = 3\nvalue = 11.887", fillcolor="#f1bc95"] ;
642 -> 643 ;
644 [label="BsmtQualXGarageArea <= 1635.0\nmse = 0.0\nsamples = 2\nvalue = 11.878", fillcolor="#f1bc96"] ;
643 -> 644 ;
645 [label="mse = 0.0\nsamples = 1\nvalue = 11.884", fillcolor="#f1bc95"] ;
644 -> 645 ;
646 [label="mse = -0.0\nsamples = 1\nvalue = 11.871", fillcolor="#f1bc96"] ;
644 -> 646 ;
647 [label="mse = 0.0\nsamples = 1\nvalue = 11.905", fillcolor="#f1bb94"] ;
643 -> 647 ;
648 [label="mse = -0.0\nsamples = 1\nvalue = 11.842", fillcolor="#f2be98"] ;
642 -> 648 ;
649 [label="GrLivAreaXHalfBath <= 1119.0\nmse = 0.004\nsamples = 61\nvalue = 11.9", fillcolor="#f1bb94"] ;
633 -> 649 ;
650 [label="LotAreaXGrLivArea <= 10605330.0\nmse = 0.003\nsamples = 52\nvalue = 11.889", fillcolor="#f1bb95"] ;
649 -> 650 ;
651 [label="BsmtUnfSF <= 686.5\nmse = 0.003\nsamples = 35\nvalue = 11.872", fillcolor="#f1bc96"] ;
650 -> 651 ;
652 [label="YearRemodAddXFullBath <= 2003.5\nmse = 0.002\nsamples = 30\nvalue = 11.885", fillcolor="#f1bc95"] ;
651 -> 652 ;
653 [label="YearBuiltXTotalBsmtSF <= 1930563.0\nmse = 0.002\nsamples = 16\nvalue = 11.866", fillcolor="#f1bd97"] ;
652 -> 653 ;
654 [label="OverallQualXYearRemodAdd <= 9957.5\nmse = 0.001\nsamples = 6\nvalue = 11.828", fillcolor="#f2be99"] ;
653 -> 654 ;
655 [label="ExterQualXYearBuilt <= 3945.0\nmse = 0.0\nsamples = 2\nvalue = 11.863", fillcolor="#f1bd97"] ;
654 -> 655 ;
656 [label="mse = 0.0\nsamples = 1\nvalue = 11.849", fillcolor="#f1bd98"] ;
655 -> 656 ;
657 [label="mse = -0.0\nsamples = 1\nvalue = 11.878", fillcolor="#f1bc96"] ;
655 -> 657 ;
658 [label="GrLivAreaXFullBath <= 874.0\nmse = 0.0\nsamples = 4\nvalue = 11.811", fillcolor="#f2bf9b"] ;
654 -> 658 ;
659 [label="mse = 0.0\nsamples = 1\nvalue = 11.787", fillcolor="#f2c09c"] ;
658 -> 659 ;
660 [label="GarageFinishXFoundation_PConc <= 1.0\nmse = 0.0\nsamples = 3\nvalue = 11.819", fillcolor="#f2bf9a"] ;
658 -> 660 ;
661 [label="TotalBsmtSFX1stFlrSF <= 894450.0\nmse = 0.0\nsamples = 2\nvalue = 11.812", fillcolor="#f2bf9b"] ;
660 -> 661 ;
662 [label="mse = 0.0\nsamples = 1\nvalue = 11.812", fillcolor="#f2bf9b"] ;
661 -> 662 ;
663 [label="mse = 0.0\nsamples = 1\nvalue = 11.813", fillcolor="#f2bf9b"] ;
661 -> 663 ;
664 [label="mse = -0.0\nsamples = 1\nvalue = 11.831", fillcolor="#f2be99"] ;
660 -> 664 ;
665 [label="GarageQualXGarageArea <= 1374.0\nmse = 0.001\nsamples = 10\nvalue = 11.888", fillcolor="#f1bc95"] ;
653 -> 665 ;
666 [label="mse = 0.0\nsamples = 2\nvalue = 11.849", fillcolor="#f1bd98"] ;
665 -> 666 ;
667 [label="GarageFinishXYearBuilt <= 1970.5\nmse = 0.0\nsamples = 8\nvalue = 11.898", fillcolor="#f1bb94"] ;
665 -> 667 ;
668 [label="TotalBsmtSF <= 1028.0\nmse = 0.0\nsamples = 3\nvalue = 11.919", fillcolor="#f1ba93"] ;
667 -> 668 ;
669 [label="mse = 0.0\nsamples = 1\nvalue = 11.908", fillcolor="#f1bb93"] ;
668 -> 669 ;
670 [label="KitchenQualXGarageFinish <= 2.5\nmse = 0.0\nsamples = 2\nvalue = 11.924", fillcolor="#f1ba92"] ;
668 -> 670 ;
671 [label="mse = 0.0\nsamples = 1\nvalue = 11.925", fillcolor="#f1ba92"] ;
670 -> 671 ;
672 [label="mse = 0.0\nsamples = 1\nvalue = 11.923", fillcolor="#f1ba92"] ;
670 -> 672 ;
673 [label="OverallQualXGarageYrBlt <= 11901.0\nmse = 0.0\nsamples = 5\nvalue = 11.885", fillcolor="#f1bc95"] ;
667 -> 673 ;
674 [label="GarageFinishXYearRemodAdd <= 1987.5\nmse = 0.0\nsamples = 4\nvalue = 11.88", fillcolor="#f1bc96"] ;
673 -> 674 ;
675 [label="ExterQualXGrLivArea <= 2037.0\nmse = 0.0\nsamples = 2\nvalue = 11.875", fillcolor="#f1bc96"] ;
674 -> 675 ;
676 [label="mse = 0.0\nsamples = 1\nvalue = 11.872", fillcolor="#f1bc96"] ;
675 -> 676 ;
677 [label="mse = 0.0\nsamples = 1\nvalue = 11.878", fillcolor="#f1bc96"] ;
675 -> 677 ;
678 [label="mse = 0.0\nsamples = 2\nvalue = 11.884", fillcolor="#f1bc95"] ;
674 -> 678 ;
679 [label="mse = -0.0\nsamples = 1\nvalue = 11.905", fillcolor="#f1bb94"] ;
673 -> 679 ;
680 [label="GrLivAreaXBedroomAbvGr <= 2162.0\nmse = 0.001\nsamples = 14\nvalue = 11.908", fillcolor="#f1bb93"] ;
652 -> 680 ;
681 [label="GarageFinishXFullBath <= 2.5\nmse = 0.001\nsamples = 10\nvalue = 11.891", fillcolor="#f1bb95"] ;
680 -> 681 ;
682 [label="YrSold <= 2007.0\nmse = 0.001\nsamples = 6\nvalue = 11.909", fillcolor="#f1bb93"] ;
681 -> 682 ;
683 [label="mse = 0.0\nsamples = 1\nvalue = 11.957", fillcolor="#f0b890"] ;
682 -> 683 ;
684 [label="YrSold <= 2009.0\nmse = 0.0\nsamples = 5\nvalue = 11.9", fillcolor="#f1bb94"] ;
682 -> 684 ;
685 [label="ExterQualXBsmtQual <= 10.0\nmse = 0.0\nsamples = 4\nvalue = 11.907", fillcolor="#f1bb94"] ;
684 -> 685 ;
686 [label="ExterQualXGarageYrBlt <= 3997.0\nmse = 0.0\nsamples = 2\nvalue = 11.902", fillcolor="#f1bb94"] ;
685 -> 686 ;
687 [label="mse = 0.0\nsamples = 1\nvalue = 11.898", fillcolor="#f1bb94"] ;
686 -> 687 ;
688 [label="mse = 0.0\nsamples = 1\nvalue = 11.905", fillcolor="#f1bb94"] ;
686 -> 688 ;
689 [label="FireplaceQu <= 3.5\nmse = 0.0\nsamples = 2\nvalue = 11.913", fillcolor="#f1ba93"] ;
685 -> 689 ;
690 [label="mse = 0.0\nsamples = 1\nvalue = 11.914", fillcolor="#f1ba93"] ;
689 -> 690 ;
691 [label="mse = 0.0\nsamples = 1\nvalue = 11.912", fillcolor="#f1ba93"] ;
689 -> 691 ;
692 [label="mse = -0.0\nsamples = 1\nvalue = 11.871", fillcolor="#f1bc96"] ;
684 -> 692 ;
693 [label="GarageFinishXFullBath <= 3.5\nmse = 0.0\nsamples = 4\nvalue = 11.864", fillcolor="#f1bd97"] ;
681 -> 693 ;
694 [label="YearBuiltXGarageYrBlt <= 4014012.5\nmse = 0.0\nsamples = 2\nvalue = 11.879", fillcolor="#f1bc96"] ;
693 -> 694 ;
695 [label="mse = 0.0\nsamples = 1\nvalue = 11.878", fillcolor="#f1bc96"] ;
694 -> 695 ;
696 [label="mse = -0.0\nsamples = 1\nvalue = 11.881", fillcolor="#f1bc95"] ;
694 -> 696 ;
697 [label="mse = -0.0\nsamples = 2\nvalue = 11.849", fillcolor="#f1bd98"] ;
693 -> 697 ;
698 [label="GarageFinishXGarageCars <= 3.0\nmse = 0.0\nsamples = 4\nvalue = 11.949", fillcolor="#f0b990"] ;
680 -> 698 ;
699 [label="mse = 0.0\nsamples = 1\nvalue = 11.922", fillcolor="#f1ba92"] ;
698 -> 699 ;
700 [label="ExterQualXTotalBsmtSF <= 2210.0\nmse = 0.0\nsamples = 3\nvalue = 11.958", fillcolor="#f0b890"] ;
698 -> 700 ;
701 [label="Foundation_PConcXFullBath <= 0.5\nmse = 0.0\nsamples = 2\nvalue = 11.961", fillcolor="#f0b890"] ;
700 -> 701 ;
702 [label="mse = 0.0\nsamples = 1\nvalue = 11.958", fillcolor="#f0b890"] ;
701 -> 702 ;
703 [label="mse = 0.0\nsamples = 1\nvalue = 11.964", fillcolor="#f0b88f"] ;
701 -> 703 ;
704 [label="mse = 0.0\nsamples = 1\nvalue = 11.951", fillcolor="#f0b990"] ;
700 -> 704 ;
705 [label="GarageType_AttchdXYearBuilt <= 1989.0\nmse = 0.002\nsamples = 5\nvalue = 11.796", fillcolor="#f2c09c"] ;
651 -> 705 ;
706 [label="YearBuiltXTotalBsmtSF <= 2131492.5\nmse = 0.001\nsamples = 4\nvalue = 11.775", fillcolor="#f2c19d"] ;
705 -> 706 ;
707 [label="FireplaceQuXFireplaces <= 1.0\nmse = 0.0\nsamples = 2\nvalue = 11.752", fillcolor="#f2c29f"] ;
706 -> 707 ;
708 [label="mse = 0.0\nsamples = 1\nvalue = 11.748", fillcolor="#f2c29f"] ;
707 -> 708 ;
709 [label="mse = 0.0\nsamples = 1\nvalue = 11.756", fillcolor="#f2c29f"] ;
707 -> 709 ;
710 [label="Neighborhood_NAmes <= 0.5\nmse = 0.0\nsamples = 2\nvalue = 11.798", fillcolor="#f2c09c"] ;
706 -> 710 ;
711 [label="mse = 0.0\nsamples = 1\nvalue = 11.806", fillcolor="#f2bf9b"] ;
710 -> 711 ;
712 [label="mse = -0.0\nsamples = 1\nvalue = 11.791", fillcolor="#f2c09c"] ;
710 -> 712 ;
713 [label="mse = -0.0\nsamples = 1\nvalue = 11.878", fillcolor="#f1bc96"] ;
705 -> 713 ;
714 [label="TotalBsmtSFXGarageCars <= 1108.5\nmse = 0.003\nsamples = 17\nvalue = 11.923", fillcolor="#f1ba92"] ;
650 -> 714 ;
715 [label="FireplaceQu <= 2.0\nmse = 0.001\nsamples = 2\nvalue = 12.021", fillcolor="#f0b58b"] ;
714 -> 715 ;
716 [label="mse = 0.0\nsamples = 1\nvalue = 12.049", fillcolor="#f0b489"] ;
715 -> 716 ;
717 [label="mse = -0.0\nsamples = 1\nvalue = 11.992", fillcolor="#f0b78d"] ;
715 -> 717 ;
718 [label="GarageFinishXGarageArea <= 831.0\nmse = 0.001\nsamples = 15\nvalue = 11.91", fillcolor="#f1ba93"] ;
714 -> 718 ;
719 [label="YearRemodAddXFullBath <= 1971.5\nmse = 0.001\nsamples = 8\nvalue = 11.884", fillcolor="#f1bc95"] ;
718 -> 719 ;
720 [label="ExterQualXYearBuilt <= 3921.0\nmse = 0.0\nsamples = 2\nvalue = 11.846", fillcolor="#f1be98"] ;
719 -> 720 ;
721 [label="mse = 0.0\nsamples = 1\nvalue = 11.842", fillcolor="#f2be98"] ;
720 -> 721 ;
722 [label="mse = -0.0\nsamples = 1\nvalue = 11.849", fillcolor="#f1bd98"] ;
720 -> 722 ;
723 [label="KitchenQualXOverallQual <= 9.0\nmse = 0.0\nsamples = 6\nvalue = 11.897", fillcolor="#f1bb94"] ;
719 -> 723 ;
724 [label="mse = 0.0\nsamples = 1\nvalue = 11.918", fillcolor="#f1ba93"] ;
723 -> 724 ;
725 [label="OverallQualX1stFlrSF <= 5525.0\nmse = 0.0\nsamples = 5\nvalue = 11.893", fillcolor="#f1bb95"] ;
723 -> 725 ;
726 [label="Exterior2nd_VinylSdXGarageYrBlt <= 997.5\nmse = 0.0\nsamples = 2\nvalue = 11.884", fillcolor="#f1bc95"] ;
725 -> 726 ;
727 [label="mse = 0.0\nsamples = 1\nvalue = 11.884", fillcolor="#f1bc95"] ;
726 -> 727 ;
728 [label="mse = -0.0\nsamples = 1\nvalue = 11.884", fillcolor="#f1bc95"] ;
726 -> 728 ;
729 [label="mse = 0.0\nsamples = 3\nvalue = 11.898", fillcolor="#f1bb94"] ;
725 -> 729 ;
730 [label="MoSold <= 5.5\nmse = 0.001\nsamples = 7\nvalue = 11.94", fillcolor="#f1b991"] ;
718 -> 730 ;
731 [label="1stFlrSFXGarageArea <= 527169.0\nmse = 0.0\nsamples = 2\nvalue = 11.904", fillcolor="#f1bb94"] ;
730 -> 731 ;
732 [label="mse = 0.0\nsamples = 1\nvalue = 11.912", fillcolor="#f1ba93"] ;
731 -> 732 ;
733 [label="mse = -0.0\nsamples = 1\nvalue = 11.897", fillcolor="#f1bb94"] ;
731 -> 733 ;
734 [label="TotalBsmtSFXGarageCars <= 1711.0\nmse = 0.0\nsamples = 5\nvalue = 11.954", fillcolor="#f0b890"] ;
730 -> 734 ;
735 [label="mse = 0.0\nsamples = 1\nvalue = 11.98", fillcolor="#f0b78e"] ;
734 -> 735 ;
736 [label="OverallQualXGarageArea <= 2532.5\nmse = 0.0\nsamples = 4\nvalue = 11.947", fillcolor="#f0b991"] ;
734 -> 736 ;
737 [label="Neighborhood_NWAmes <= 0.5\nmse = 0.0\nsamples = 2\nvalue = 11.94", fillcolor="#f1b991"] ;
736 -> 737 ;
738 [label="mse = 0.0\nsamples = 1\nvalue = 11.938", fillcolor="#f1b991"] ;
737 -> 738 ;
739 [label="mse = 0.0\nsamples = 1\nvalue = 11.941", fillcolor="#f1b991"] ;
737 -> 739 ;
740 [label="GrLivAreaXFireplaces <= 1094.0\nmse = 0.0\nsamples = 2\nvalue = 11.954", fillcolor="#f0b890"] ;
736 -> 740 ;
741 [label="mse = 0.0\nsamples = 1\nvalue = 11.958", fillcolor="#f0b890"] ;
740 -> 741 ;
742 [label="mse = 0.0\nsamples = 1\nvalue = 11.951", fillcolor="#f0b990"] ;
740 -> 742 ;
743 [label="GarageFinishXGarageQual <= 7.0\nmse = 0.004\nsamples = 9\nvalue = 11.963", fillcolor="#f0b88f"] ;
649 -> 743 ;
744 [label="KitchenQualXGarageYrBlt <= 5925.0\nmse = 0.001\nsamples = 7\nvalue = 11.931", fillcolor="#f1b992"] ;
743 -> 744 ;
745 [label="BsmtQualXKitchenQual <= 10.5\nmse = 0.0\nsamples = 5\nvalue = 11.95", fillcolor="#f0b990"] ;
744 -> 745 ;
746 [label="LotArea <= 7715.5\nmse = 0.0\nsamples = 4\nvalue = 11.947", fillcolor="#f1b991"] ;
745 -> 746 ;
747 [label="GarageType_Detchd <= 0.5\nmse = 0.0\nsamples = 2\nvalue = 11.943", fillcolor="#f1b991"] ;
746 -> 747 ;
748 [label="mse = 0.0\nsamples = 1\nvalue = 11.945", fillcolor="#f1b991"] ;
747 -> 748 ;
749 [label="mse = 0.0\nsamples = 1\nvalue = 11.94", fillcolor="#f1b991"] ;
747 -> 749 ;
750 [label="mse = 0.0\nsamples = 2\nvalue = 11.951", fillcolor="#f0b990"] ;
746 -> 750 ;
751 [label="mse = 0.0\nsamples = 1\nvalue = 11.964", fillcolor="#f0b88f"] ;
745 -> 751 ;
752 [label="BsmtQualXBsmtCond <= 12.5\nmse = 0.0\nsamples = 2\nvalue = 11.883", fillcolor="#f1bc95"] ;
744 -> 752 ;
753 [label="mse = 0.0\nsamples = 1\nvalue = 11.891", fillcolor="#f1bb95"] ;
752 -> 753 ;
754 [label="mse = 0.0\nsamples = 1\nvalue = 11.874", fillcolor="#f1bc96"] ;
752 -> 754 ;
755 [label="ExterQualXGrLivArea <= 2297.0\nmse = 0.0\nsamples = 2\nvalue = 12.075", fillcolor="#efb387"] ;
743 -> 755 ;
756 [label="mse = 0.0\nsamples = 1\nvalue = 12.078", fillcolor="#efb387"] ;
755 -> 756 ;
757 [label="mse = 0.0\nsamples = 1\nvalue = 12.072", fillcolor="#efb387"] ;
755 -> 757 ;
758 [label="PavedDriveXYearBuilt <= 979.5\nmse = 0.013\nsamples = 24\nvalue = 11.975", fillcolor="#f0b78e"] ;
610 -> 758 ;
759 [label="mse = 0.0\nsamples = 1\nvalue = 11.635", fillcolor="#f4c7a8"] ;
758 -> 759 ;
760 [label="BsmtExposure <= 2.5\nmse = 0.008\nsamples = 23\nvalue = 11.99", fillcolor="#f0b78d"] ;
758 -> 760 ;
761 [label="BsmtQualXYearRemodAdd <= 5926.5\nmse = 0.005\nsamples = 14\nvalue = 11.944", fillcolor="#f1b991"] ;
760 -> 761 ;
762 [label="GarageFinishXGarageCars <= 1.5\nmse = 0.002\nsamples = 5\nvalue = 11.88", fillcolor="#f1bc96"] ;
761 -> 762 ;
763 [label="mse = 0.0\nsamples = 1\nvalue = 11.97", fillcolor="#f0b88f"] ;
762 -> 763 ;
764 [label="GarageFinishXYearBuilt <= 5889.0\nmse = 0.0\nsamples = 4\nvalue = 11.857", fillcolor="#f1bd97"] ;
762 -> 764 ;
765 [label="GrLivAreaXBedroomAbvGr <= 2433.0\nmse = 0.0\nsamples = 3\nvalue = 11.862", fillcolor="#f1bd97"] ;
764 -> 765 ;
766 [label="mse = 0.0\nsamples = 1\nvalue = 11.857", fillcolor="#f1bd97"] ;
765 -> 766 ;
767 [label="TotalBsmtSF <= 1026.0\nmse = 0.0\nsamples = 2\nvalue = 11.865", fillcolor="#f1bd97"] ;
765 -> 767 ;
768 [label="mse = 0.0\nsamples = 1\nvalue = 11.867", fillcolor="#f1bd97"] ;
767 -> 768 ;
769 [label="mse = 0.0\nsamples = 1\nvalue = 11.864", fillcolor="#f1bd97"] ;
767 -> 769 ;
770 [label="mse = 0.0\nsamples = 1\nvalue = 11.841", fillcolor="#f2be98"] ;
764 -> 770 ;
771 [label="MoSold <= 4.0\nmse = 0.003\nsamples = 9\nvalue = 11.981", fillcolor="#f0b78e"] ;
761 -> 771 ;
772 [label="mse = 0.0\nsamples = 1\nvalue = 11.867", fillcolor="#f1bd97"] ;
771 -> 772 ;
773 [label="BsmtUnfSF <= 127.5\nmse = 0.001\nsamples = 8\nvalue = 11.995", fillcolor="#f0b68d"] ;
771 -> 773 ;
774 [label="mse = 0.0\nsamples = 1\nvalue = 12.078", fillcolor="#efb387"] ;
773 -> 774 ;
775 [label="Exterior1st_Wd Sdng <= 0.5\nmse = 0.0\nsamples = 7\nvalue = 11.983", fillcolor="#f0b78e"] ;
773 -> 775 ;
776 [label="TotalBsmtSFX1stFlrSF <= 1110548.0\nmse = 0.0\nsamples = 5\nvalue = 11.972", fillcolor="#f0b88f"] ;
775 -> 776 ;
777 [label="mse = 0.0\nsamples = 1\nvalue = 11.958", fillcolor="#f0b890"] ;
776 -> 777 ;
778 [label="FullBathXGarageYrBlt <= 2980.0\nmse = 0.0\nsamples = 4\nvalue = 11.976", fillcolor="#f0b78e"] ;
776 -> 778 ;
779 [label="HouseStyle_1StoryX1stFlrSF <= 1155.0\nmse = 0.0\nsamples = 3\nvalue = 11.974", fillcolor="#f0b78f"] ;
778 -> 779 ;
780 [label="OverallQualXTotalBsmtSF <= 6061.0\nmse = 0.0\nsamples = 2\nvalue = 11.975", fillcolor="#f0b78e"] ;
779 -> 780 ;
781 [label="mse = 0.0\nsamples = 1\nvalue = 11.977", fillcolor="#f0b78e"] ;
780 -> 781 ;
782 [label="mse = 0.0\nsamples = 1\nvalue = 11.974", fillcolor="#f0b78f"] ;
780 -> 782 ;
783 [label="mse = 0.0\nsamples = 1\nvalue = 11.97", fillcolor="#f0b88f"] ;
779 -> 783 ;
784 [label="mse = 0.0\nsamples = 1\nvalue = 11.983", fillcolor="#f0b78e"] ;
778 -> 784 ;
785 [label="LandContour_HLS <= 0.5\nmse = 0.0\nsamples = 2\nvalue = 12.009", fillcolor="#f0b68c"] ;
775 -> 785 ;
786 [label="mse = 0.0\nsamples = 1\nvalue = 12.014", fillcolor="#f0b68c"] ;
785 -> 786 ;
787 [label="mse = 0.0\nsamples = 1\nvalue = 12.005", fillcolor="#f0b68c"] ;
785 -> 787 ;
788 [label="GarageYrBlt <= 1982.5\nmse = 0.005\nsamples = 9\nvalue = 12.061", fillcolor="#efb388"] ;
760 -> 788 ;
789 [label="BsmtFinSF1XBsmtFullBath <= 609.5\nmse = 0.002\nsamples = 8\nvalue = 12.08", fillcolor="#efb287"] ;
788 -> 789 ;
790 [label="BsmtFinType1XBsmtFinSF1 <= 1945.0\nmse = 0.0\nsamples = 4\nvalue = 12.042", fillcolor="#f0b489"] ;
789 -> 790 ;
791 [label="mse = 0.0\nsamples = 1\nvalue = 12.011", fillcolor="#f0b68c"] ;
790 -> 791 ;
792 [label="Exterior1st_VinylSdXYearBuilt <= 1968.0\nmse = 0.0\nsamples = 3\nvalue = 12.053", fillcolor="#efb489"] ;
790 -> 792 ;
793 [label="mse = 0.0\nsamples = 2\nvalue = 12.043", fillcolor="#f0b489"] ;
792 -> 793 ;
794 [label="mse = 0.0\nsamples = 1\nvalue = 12.073", fillcolor="#efb387"] ;
792 -> 794 ;
795 [label="KitchenQualXTotalBsmtSF <= 3928.0\nmse = 0.001\nsamples = 4\nvalue = 12.118", fillcolor="#efb184"] ;
789 -> 795 ;
796 [label="GarageCarsXGarageArea <= 1128.0\nmse = 0.0\nsamples = 3\nvalue = 12.099", fillcolor="#efb285"] ;
795 -> 796 ;
797 [label="MSZoning_RLXLotArea <= 17782.5\nmse = 0.0\nsamples = 2\nvalue = 12.102", fillcolor="#efb185"] ;
796 -> 797 ;
798 [label="mse = 0.0\nsamples = 1\nvalue = 12.103", fillcolor="#efb185"] ;
797 -> 798 ;
799 [label="mse = -0.0\nsamples = 1\nvalue = 12.101", fillcolor="#efb185"] ;
797 -> 799 ;
800 [label="mse = 0.0\nsamples = 1\nvalue = 12.092", fillcolor="#efb286"] ;
796 -> 800 ;
801 [label="mse = 0.0\nsamples = 1\nvalue = 12.176", fillcolor="#eeae80"] ;
795 -> 801 ;
802 [label="mse = -0.0\nsamples = 1\nvalue = 11.905", fillcolor="#f1bb94"] ;
788 -> 802 ;
803 [label="BsmtQualXKitchenQual <= 7.0\nmse = 0.019\nsamples = 172\nvalue = 12.033", fillcolor="#f0b58a"] ;
515 -> 803 ;
804 [label="OverallQualXYearRemodAdd <= 9867.5\nmse = 0.018\nsamples = 54\nvalue = 11.934", fillcolor="#f1b992"] ;
803 -> 804 ;
805 [label="LotAreaXGrLivArea <= 21081000.0\nmse = 0.008\nsamples = 10\nvalue = 11.76", fillcolor="#f2c29e"] ;
804 -> 805 ;
806 [label="LotArea <= 9935.0\nmse = 0.004\nsamples = 7\nvalue = 11.711", fillcolor="#f3c4a2"] ;
805 -> 806 ;
807 [label="GrLivAreaXGarageCars <= 3384.0\nmse = 0.001\nsamples = 4\nvalue = 11.752", fillcolor="#f2c29f"] ;
806 -> 807 ;
808 [label="mse = 0.0\nsamples = 1\nvalue = 11.813", fillcolor="#f2bf9b"] ;
807 -> 808 ;
809 [label="BsmtUnfSFXTotalBsmtSF <= 1715328.0\nmse = 0.0\nsamples = 3\nvalue = 11.732", fillcolor="#f3c3a1"] ;
807 -> 809 ;
810 [label="YearBuiltXTotalBsmtSF <= 2632992.0\nmse = 0.0\nsamples = 2\nvalue = 11.734", fillcolor="#f3c3a0"] ;
809 -> 810 ;
811 [label="mse = 0.0\nsamples = 1\nvalue = 11.732", fillcolor="#f3c3a1"] ;
810 -> 811 ;
812 [label="mse = 0.0\nsamples = 1\nvalue = 11.736", fillcolor="#f3c3a0"] ;
810 -> 812 ;
813 [label="mse = -0.0\nsamples = 1\nvalue = 11.728", fillcolor="#f3c3a1"] ;
809 -> 813 ;
814 [label="Exterior1st_VinylSd <= 0.5\nmse = 0.001\nsamples = 3\nvalue = 11.655", fillcolor="#f3c7a6"] ;
806 -> 814 ;
815 [label="BsmtFinType1 <= 4.0\nmse = 0.0\nsamples = 2\nvalue = 11.678", fillcolor="#f3c5a5"] ;
814 -> 815 ;
816 [label="mse = 0.0\nsamples = 1\nvalue = 11.67", fillcolor="#f3c6a5"] ;
815 -> 816 ;
817 [label="mse = 0.0\nsamples = 1\nvalue = 11.687", fillcolor="#f3c5a4"] ;
815 -> 817 ;
818 [label="mse = -0.0\nsamples = 1\nvalue = 11.608", fillcolor="#f4c9aa"] ;
814 -> 818 ;
819 [label="GarageFinishXGarageCond <= 4.0\nmse = 0.001\nsamples = 3\nvalue = 11.874", fillcolor="#f1bc96"] ;
805 -> 819 ;
820 [label="mse = 0.0\nsamples = 1\nvalue = 11.828", fillcolor="#f2be99"] ;
819 -> 820 ;
821 [label="GarageCars <= 1.5\nmse = 0.0\nsamples = 2\nvalue = 11.897", fillcolor="#f1bb94"] ;
819 -> 821 ;
822 [label="mse = 0.0\nsamples = 1\nvalue = 11.877", fillcolor="#f1bc96"] ;
821 -> 822 ;
823 [label="mse = -0.0\nsamples = 1\nvalue = 11.918", fillcolor="#f1ba93"] ;
821 -> 823 ;
824 [label="YearBuilt <= 1926.5\nmse = 0.011\nsamples = 44\nvalue = 11.974", fillcolor="#f0b78f"] ;
804 -> 824 ;
825 [label="GarageQualXGarageArea <= 1437.0\nmse = 0.0\nsamples = 3\nvalue = 11.744", fillcolor="#f2c2a0"] ;
824 -> 825 ;
826 [label="GarageFinishXGarageCars <= 1.5\nmse = 0.0\nsamples = 2\nvalue = 11.736", fillcolor="#f3c3a0"] ;
825 -> 826 ;
827 [label="mse = 0.0\nsamples = 1\nvalue = 11.736", fillcolor="#f3c3a0"] ;
826 -> 827 ;
828 [label="mse = -0.0\nsamples = 1\nvalue = 11.735", fillcolor="#f3c3a0"] ;
826 -> 828 ;
829 [label="mse = 0.0\nsamples = 1\nvalue = 11.76", fillcolor="#f2c29e"] ;
825 -> 829 ;
830 [label="LotAreaXGrLivArea <= 15724800.0\nmse = 0.008\nsamples = 41\nvalue = 11.991", fillcolor="#f0b78d"] ;
824 -> 830 ;
831 [label="GrLivArea <= 1602.5\nmse = 0.004\nsamples = 24\nvalue = 11.949", fillcolor="#f0b990"] ;
830 -> 831 ;
832 [label="BsmtUnfSFXTotalBsmtSF <= 1308255.0\nmse = 0.003\nsamples = 21\nvalue = 11.963", fillcolor="#f0b88f"] ;
831 -> 832 ;
833 [label="TotalBsmtSFXGarageCars <= 1990.0\nmse = 0.002\nsamples = 19\nvalue = 11.975", fillcolor="#f0b78e"] ;
832 -> 833 ;
834 [label="YearRemodAddXGarageCars <= 3955.0\nmse = 0.001\nsamples = 10\nvalue = 11.946", fillcolor="#f1b991"] ;
833 -> 834 ;
835 [label="HeatingQCXGarageYrBlt <= 6851.0\nmse = 0.0\nsamples = 7\nvalue = 11.96", fillcolor="#f0b890"] ;
834 -> 835 ;
836 [label="Condition1_Norm <= 0.5\nmse = 0.0\nsamples = 6\nvalue = 11.966", fillcolor="#f0b88f"] ;
835 -> 836 ;
837 [label="mse = 0.0\nsamples = 2\nvalue = 11.951", fillcolor="#f0b990"] ;
836 -> 837 ;
838 [label="LotArea <= 9275.0\nmse = 0.0\nsamples = 4\nvalue = 11.974", fillcolor="#f0b78f"] ;
836 -> 838 ;
839 [label="2ndFlrSFXBedroomAbvGr <= 1092.0\nmse = 0.0\nsamples = 2\nvalue = 11.981", fillcolor="#f0b78e"] ;
838 -> 839 ;
840 [label="mse = 0.0\nsamples = 1\nvalue = 11.983", fillcolor="#f0b78e"] ;
839 -> 840 ;
841 [label="mse = -0.0\nsamples = 1\nvalue = 11.98", fillcolor="#f0b78e"] ;
839 -> 841 ;
842 [label="GarageFinishXGarageYrBlt <= 3918.0\nmse = 0.0\nsamples = 2\nvalue = 11.967", fillcolor="#f0b88f"] ;
838 -> 842 ;
843 [label="mse = 0.0\nsamples = 1\nvalue = 11.97", fillcolor="#f0b88f"] ;
842 -> 843 ;
844 [label="mse = 0.0\nsamples = 1\nvalue = 11.964", fillcolor="#f0b88f"] ;
842 -> 844 ;
845 [label="mse = -0.0\nsamples = 1\nvalue = 11.918", fillcolor="#f1ba93"] ;
835 -> 845 ;
846 [label="2ndFlrSFXFullBath <= 950.0\nmse = 0.0\nsamples = 3\nvalue = 11.913", fillcolor="#f1ba93"] ;
834 -> 846 ;
847 [label="BsmtFinType1XBsmtFinSF1 <= 2322.5\nmse = 0.0\nsamples = 2\nvalue = 11.916", fillcolor="#f1ba93"] ;
846 -> 847 ;
848 [label="mse = 0.0\nsamples = 1\nvalue = 11.915", fillcolor="#f1ba93"] ;
847 -> 848 ;
849 [label="mse = -0.0\nsamples = 1\nvalue = 11.916", fillcolor="#f1ba93"] ;
847 -> 849 ;
850 [label="mse = 0.0\nsamples = 1\nvalue = 11.908", fillcolor="#f1bb93"] ;
846 -> 850 ;
851 [label="KitchenQualXGarageYrBlt <= 3935.0\nmse = 0.001\nsamples = 9\nvalue = 12.007", fillcolor="#f0b68c"] ;
833 -> 851 ;
852 [label="KitchenQualXYearRemodAdd <= 3915.0\nmse = 0.0\nsamples = 6\nvalue = 11.99", fillcolor="#f0b78d"] ;
851 -> 852 ;
853 [label="mse = 0.0\nsamples = 1\nvalue = 11.961", fillcolor="#f0b890"] ;
852 -> 853 ;
854 [label="OverallQualXYearBuilt <= 11778.0\nmse = 0.0\nsamples = 5\nvalue = 11.996", fillcolor="#f0b68d"] ;
852 -> 854 ;
855 [label="mse = 0.0\nsamples = 3\nvalue = 12.001", fillcolor="#f0b68d"] ;
854 -> 855 ;
856 [label="Neighborhood_NAmes <= 0.5\nmse = 0.0\nsamples = 2\nvalue = 11.988", fillcolor="#f0b78e"] ;
854 -> 856 ;
857 [label="mse = 0.0\nsamples = 1\nvalue = 11.992", fillcolor="#f0b78d"] ;
856 -> 857 ;
858 [label="mse = -0.0\nsamples = 1\nvalue = 11.983", fillcolor="#f0b78e"] ;
856 -> 858 ;
859 [label="BsmtFinType1XBsmtFullBath <= 2.0\nmse = 0.001\nsamples = 3\nvalue = 12.042", fillcolor="#f0b489"] ;
851 -> 859 ;
860 [label="mse = 0.0\nsamples = 1\nvalue = 12.075", fillcolor="#efb387"] ;
859 -> 860 ;
861 [label="mse = 0.0\nsamples = 2\nvalue = 12.026", fillcolor="#f0b58b"] ;
859 -> 861 ;
862 [label="mse = -0.0\nsamples = 2\nvalue = 11.849", fillcolor="#f1bd98"] ;
832 -> 862 ;
863 [label="Fence_Missing <= 0.5\nmse = 0.0\nsamples = 3\nvalue = 11.854", fillcolor="#f1bd97"] ;
831 -> 863 ;
864 [label="YearRemodAdd <= 1985.0\nmse = 0.0\nsamples = 2\nvalue = 11.839", fillcolor="#f2be99"] ;
863 -> 864 ;
865 [label="mse = 0.0\nsamples = 1\nvalue = 11.835", fillcolor="#f2be99"] ;
864 -> 865 ;
866 [label="mse = -0.0\nsamples = 1\nvalue = 11.842", fillcolor="#f2be98"] ;
864 -> 866 ;
867 [label="mse = -0.0\nsamples = 1\nvalue = 11.884", fillcolor="#f1bc95"] ;
863 -> 867 ;
868 [label="TotalBsmtSFX1stFlrSF <= 2351152.0\nmse = 0.007\nsamples = 17\nvalue = 12.05", fillcolor="#efb489"] ;
830 -> 868 ;
869 [label="GarageYrBltXGarageArea <= 1044982.5\nmse = 0.004\nsamples = 12\nvalue = 12.013", fillcolor="#f0b68c"] ;
868 -> 869 ;
870 [label="HeatingQCXYearRemodAdd <= 3950.0\nmse = 0.001\nsamples = 7\nvalue = 11.968", fillcolor="#f0b88f"] ;
869 -> 870 ;
871 [label="HouseStyle_2StoryXTotRmsAbvGrd <= 3.0\nmse = 0.0\nsamples = 2\nvalue = 12.011", fillcolor="#f0b68c"] ;
870 -> 871 ;
872 [label="mse = 0.0\nsamples = 1\nvalue = 12.026", fillcolor="#f0b58b"] ;
871 -> 872 ;
873 [label="mse = 0.0\nsamples = 1\nvalue = 11.995", fillcolor="#f0b68d"] ;
871 -> 873 ;
874 [label="KitchenQualXTotalBsmtSF <= 2983.0\nmse = 0.0\nsamples = 5\nvalue = 11.951", fillcolor="#f0b990"] ;
870 -> 874 ;
875 [label="GrLivAreaXBedroomAbvGr <= 4921.5\nmse = 0.0\nsamples = 4\nvalue = 11.96", fillcolor="#f0b890"] ;
874 -> 875 ;
876 [label="YearBuiltXYearRemodAdd <= 3877042.0\nmse = 0.0\nsamples = 2\nvalue = 11.972", fillcolor="#f0b88f"] ;
875 -> 876 ;
877 [label="mse = 0.0\nsamples = 1\nvalue = 11.967", fillcolor="#f0b88f"] ;
876 -> 877 ;
878 [label="mse = 0.0\nsamples = 1\nvalue = 11.976", fillcolor="#f0b78e"] ;
876 -> 878 ;
879 [label="HouseStyle_1Story <= 0.5\nmse = 0.0\nsamples = 2\nvalue = 11.948", fillcolor="#f0b991"] ;
875 -> 879 ;
880 [label="mse = 0.0\nsamples = 1\nvalue = 11.945", fillcolor="#f1b991"] ;
879 -> 880 ;
881 [label="mse = -0.0\nsamples = 1\nvalue = 11.951", fillcolor="#f0b990"] ;
879 -> 881 ;
882 [label="mse = -0.0\nsamples = 1\nvalue = 11.915", fillcolor="#f1ba93"] ;
874 -> 882 ;
883 [label="OverallQual <= 5.5\nmse = 0.001\nsamples = 5\nvalue = 12.076", fillcolor="#efb387"] ;
869 -> 883 ;
884 [label="LotAreaXGrLivArea <= 18101138.0\nmse = 0.0\nsamples = 2\nvalue = 12.038", fillcolor="#f0b48a"] ;
883 -> 884 ;
885 [label="mse = 0.0\nsamples = 1\nvalue = 12.044", fillcolor="#f0b489"] ;
884 -> 885 ;
886 [label="mse = -0.0\nsamples = 1\nvalue = 12.032", fillcolor="#f0b58a"] ;
884 -> 886 ;
887 [label="LotFrontage <= 80.75\nmse = 0.0\nsamples = 3\nvalue = 12.102", fillcolor="#efb185"] ;
883 -> 887 ;
888 [label="mse = 0.0\nsamples = 1\nvalue = 12.128", fillcolor="#efb083"] ;
887 -> 888 ;
889 [label="GarageFinishXYearRemodAdd <= 2949.0\nmse = 0.0\nsamples = 2\nvalue = 12.089", fillcolor="#efb286"] ;
887 -> 889 ;
890 [label="mse = 0.0\nsamples = 1\nvalue = 12.078", fillcolor="#efb387"] ;
889 -> 890 ;
891 [label="mse = 0.0\nsamples = 1\nvalue = 12.1", fillcolor="#efb185"] ;
889 -> 891 ;
892 [label="LotFrontage <= 74.75\nmse = 0.004\nsamples = 5\nvalue = 12.137", fillcolor="#efb082"] ;
868 -> 892 ;
893 [label="HeatingQCXYearBuilt <= 3933.0\nmse = 0.002\nsamples = 3\nvalue = 12.181", fillcolor="#eeae7f"] ;
892 -> 893 ;
894 [label="mse = 0.0\nsamples = 1\nvalue = 12.243", fillcolor="#eeab7b"] ;
893 -> 894 ;
895 [label="1stFlrSFXGrLivArea <= 3235836.5\nmse = 0.0\nsamples = 2\nvalue = 12.149", fillcolor="#efaf82"] ;
893 -> 895 ;
896 [label="mse = 0.0\nsamples = 1\nvalue = 12.144", fillcolor="#efaf82"] ;
895 -> 896 ;
897 [label="mse = 0.0\nsamples = 1\nvalue = 12.155", fillcolor="#eeaf81"] ;
895 -> 897 ;
898 [label="BsmtFinType1 <= 4.0\nmse = 0.001\nsamples = 2\nvalue = 12.072", fillcolor="#efb387"] ;
892 -> 898 ;
899 [label="mse = 0.0\nsamples = 1\nvalue = 12.101", fillcolor="#efb185"] ;
898 -> 899 ;
900 [label="mse = 0.0\nsamples = 1\nvalue = 12.044", fillcolor="#f0b489"] ;
898 -> 900 ;
901 [label="TotalBsmtSFXGarageCars <= 2540.0\nmse = 0.013\nsamples = 118\nvalue = 12.078", fillcolor="#efb387"] ;
803 -> 901 ;
902 [label="BsmtQualXTotalBsmtSF <= 2482.0\nmse = 0.01\nsamples = 76\nvalue = 12.033", fillcolor="#f0b58a"] ;
901 -> 902 ;
903 [label="FullBathXGarageArea <= 964.0\nmse = 0.012\nsamples = 15\nvalue = 11.933", fillcolor="#f1b992"] ;
902 -> 903 ;
904 [label="Foundation_CBlock <= 0.5\nmse = 0.006\nsamples = 12\nvalue = 11.897", fillcolor="#f1bb94"] ;
903 -> 904 ;
905 [label="2ndFlrSFXTotRmsAbvGrd <= 2502.0\nmse = 0.001\nsamples = 9\nvalue = 11.936", fillcolor="#f1b991"] ;
904 -> 905 ;
906 [label="ExterQualXYearBuilt <= 6013.5\nmse = 0.0\nsamples = 5\nvalue = 11.908", fillcolor="#f1bb93"] ;
905 -> 906 ;
907 [label="LotConfig_Inside <= 0.5\nmse = 0.0\nsamples = 3\nvalue = 11.92", fillcolor="#f1ba93"] ;
906 -> 907 ;
908 [label="mse = 0.0\nsamples = 1\nvalue = 11.91", fillcolor="#f1ba93"] ;
907 -> 908 ;
909 [label="mse = -0.0\nsamples = 2\nvalue = 11.925", fillcolor="#f1ba92"] ;
907 -> 909 ;
910 [label="GrLivAreaXHalfBath <= 1211.5\nmse = 0.0\nsamples = 2\nvalue = 11.89", fillcolor="#f1bb95"] ;
906 -> 910 ;
911 [label="mse = 0.0\nsamples = 1\nvalue = 11.879", fillcolor="#f1bc96"] ;
910 -> 911 ;
912 [label="mse = 0.0\nsamples = 1\nvalue = 11.901", fillcolor="#f1bb94"] ;
910 -> 912 ;
913 [label="OverallQualXGrLivArea <= 8618.0\nmse = 0.0\nsamples = 4\nvalue = 11.972", fillcolor="#f0b88f"] ;
905 -> 913 ;
914 [label="GarageArea <= 504.0\nmse = 0.0\nsamples = 2\nvalue = 11.957", fillcolor="#f0b890"] ;
913 -> 914 ;
915 [label="mse = 0.0\nsamples = 1\nvalue = 11.964", fillcolor="#f0b88f"] ;
914 -> 915 ;
916 [label="mse = -0.0\nsamples = 1\nvalue = 11.951", fillcolor="#f0b990"] ;
914 -> 916 ;
917 [label="FireplaceQu <= 2.0\nmse = 0.0\nsamples = 2\nvalue = 11.986", fillcolor="#f0b78e"] ;
913 -> 917 ;
918 [label="mse = 0.0\nsamples = 1\nvalue = 11.983", fillcolor="#f0b78e"] ;
917 -> 918 ;
919 [label="mse = 0.0\nsamples = 1\nvalue = 11.989", fillcolor="#f0b78d"] ;
917 -> 919 ;
920 [label="BsmtFinType2XBsmtFinSF2 <= 531.0\nmse = 0.002\nsamples = 3\nvalue = 11.78", fillcolor="#f2c19d"] ;
904 -> 920 ;
921 [label="GarageFinishXGarageArea <= 1168.0\nmse = 0.001\nsamples = 2\nvalue = 11.754", fillcolor="#f2c29f"] ;
920 -> 921 ;
922 [label="mse = 0.0\nsamples = 1\nvalue = 11.779", fillcolor="#f2c19d"] ;
921 -> 922 ;
923 [label="mse = 0.0\nsamples = 1\nvalue = 11.728", fillcolor="#f3c3a1"] ;
921 -> 923 ;
924 [label="mse = 0.0\nsamples = 1\nvalue = 11.831", fillcolor="#f2be99"] ;
920 -> 924 ;
925 [label="FullBathXGarageArea <= 1012.0\nmse = 0.009\nsamples = 3\nvalue = 12.075", fillcolor="#efb387"] ;
903 -> 925 ;
926 [label="mse = 0.0\nsamples = 1\nvalue = 12.193", fillcolor="#eead7e"] ;
925 -> 926 ;
927 [label="Exterior2nd_MetalSd <= 0.5\nmse = 0.002\nsamples = 2\nvalue = 12.016", fillcolor="#f0b58b"] ;
925 -> 927 ;
928 [label="mse = 0.0\nsamples = 1\nvalue = 12.065", fillcolor="#efb388"] ;
927 -> 928 ;
929 [label="mse = 0.0\nsamples = 1\nvalue = 11.967", fillcolor="#f0b88f"] ;
927 -> 929 ;
930 [label="LotFrontage <= 33.0\nmse = 0.007\nsamples = 61\nvalue = 12.058", fillcolor="#efb388"] ;
902 -> 930 ;
931 [label="ExterQualXGarageArea <= 807.0\nmse = 0.001\nsamples = 6\nvalue = 11.938", fillcolor="#f1b991"] ;
930 -> 931 ;
932 [label="mse = 0.0\nsamples = 1\nvalue = 12.008", fillcolor="#f0b68c"] ;
931 -> 932 ;
933 [label="KitchenQualXGarageYrBlt <= 3958.0\nmse = 0.0\nsamples = 5\nvalue = 11.923", fillcolor="#f1ba92"] ;
931 -> 933 ;
934 [label="YearBuiltXGarageArea <= 869880.0\nmse = 0.0\nsamples = 2\nvalue = 11.9", fillcolor="#f1bb94"] ;
933 -> 934 ;
935 [label="mse = 0.0\nsamples = 1\nvalue = 11.908", fillcolor="#f1bb93"] ;
934 -> 935 ;
936 [label="mse = 0.0\nsamples = 1\nvalue = 11.891", fillcolor="#f1bb95"] ;
934 -> 936 ;
937 [label="GrLivAreaXBedroomAbvGr <= 4656.0\nmse = 0.0\nsamples = 3\nvalue = 11.939", fillcolor="#f1b991"] ;
933 -> 937 ;
938 [label="Exterior1st_VinylSdXYearRemodAdd <= 999.0\nmse = 0.0\nsamples = 2\nvalue = 11.946", fillcolor="#f1b991"] ;
937 -> 938 ;
939 [label="mse = 0.0\nsamples = 1\nvalue = 11.951", fillcolor="#f0b990"] ;
938 -> 939 ;
940 [label="mse = 0.0\nsamples = 1\nvalue = 11.941", fillcolor="#f1b991"] ;
938 -> 940 ;
941 [label="mse = 0.0\nsamples = 1\nvalue = 11.925", fillcolor="#f1ba92"] ;
937 -> 941 ;
942 [label="KitchenQualXTotalBsmtSF <= 3759.0\nmse = 0.006\nsamples = 55\nvalue = 12.071", fillcolor="#efb387"] ;
930 -> 942 ;
943 [label="BsmtFinType1XBsmtFinSF1 <= 3888.0\nmse = 0.004\nsamples = 51\nvalue = 12.082", fillcolor="#efb287"] ;
942 -> 943 ;
944 [label="KitchenQualXYearRemodAdd <= 3926.0\nmse = 0.003\nsamples = 39\nvalue = 12.062", fillcolor="#efb388"] ;
943 -> 944 ;
945 [label="mse = 0.0\nsamples = 1\nvalue = 12.255", fillcolor="#edaa7a"] ;
944 -> 945 ;
946 [label="BsmtUnfSFXTotalBsmtSF <= 1034066.0\nmse = 0.002\nsamples = 38\nvalue = 12.057", fillcolor="#efb488"] ;
944 -> 946 ;
947 [label="OpenPorchSF <= 58.5\nmse = 0.001\nsamples = 32\nvalue = 12.067", fillcolor="#efb388"] ;
946 -> 947 ;
948 [label="LotFrontage <= 74.75\nmse = 0.001\nsamples = 26\nvalue = 12.057", fillcolor="#efb488"] ;
947 -> 948 ;
949 [label="HouseStyle_2StoryXGrLivArea <= 1419.0\nmse = 0.001\nsamples = 20\nvalue = 12.048", fillcolor="#f0b489"] ;
948 -> 949 ;
950 [label="GarageFinishXYearRemodAdd <= 5017.5\nmse = 0.0\nsamples = 5\nvalue = 12.018", fillcolor="#f0b58b"] ;
949 -> 950 ;
951 [label="KitchenQualXGarageFinish <= 2.5\nmse = 0.0\nsamples = 4\nvalue = 12.009", fillcolor="#f0b68c"] ;
950 -> 951 ;
952 [label="mse = 0.0\nsamples = 1\nvalue = 11.998", fillcolor="#f0b68d"] ;
951 -> 952 ;
953 [label="BsmtFinType1XBsmtFullBath <= 2.5\nmse = 0.0\nsamples = 3\nvalue = 12.013", fillcolor="#f0b68c"] ;
951 -> 953 ;
954 [label="mse = 0.0\nsamples = 1\nvalue = 12.012", fillcolor="#f0b68c"] ;
953 -> 954 ;
